nep4   8 H Si O Al Hf La Ti N
cutoff 6.0 4.0
n_max  16 12
basis_size 12 8
l_max  4 2 1
ANN    60 0
0.3049729604308299
-0.0777739263817836
0.2637845562910384
0.2515216271914539
-0.2987754700894214
0.048272554960996694
0.1651016971107465
-0.26134044967083664
-0.2533500149144029
-0.09803758285852486
0.3150776659795924
0.1281158305005518
-0.04513789834885816
0.26369174627799785
0.23694577033191433
0.15598703103840725
0.042670600447301296
0.05776473225024807
-0.03139988008051366
0.18304660177024698
0.18753158912377918
-0.038344170528004186
-0.2398807769983968
-0.29483354030547543
-0.10958024796025816
-0.008776295226860234
-0.4536263971263668
-0.044916195585526744
-0.4849004191213784
0.004664496168094252
-0.15412070111077172
0.20750289472292754
-0.01862040016914268
0.16764380836409276
-0.20087408426894654
-0.04310199958690775
-0.3428435256779475
-0.10190816020662312
-0.02074689272115506
-0.2951967873472535
0.22726659209627031
-0.7213021201607634
0.09974662066174556
-0.02229118784210408
-0.11028854145548367
-0.05507007689452835
-0.06424870164695079
0.16340134302081072
-0.12991425223762
-0.26161609917047085
-0.3395221812872105
0.027381299995983637
-0.4454168276672215
0.3190298309843894
-0.4515370126442563
0.01428652959518112
-0.0918779480731385
0.0596760927615612
-0.1728545068264909
-0.046255372800374006
0.07982225935990422
-0.3005040968499102
-0.20111327921499503
-0.2192175144123134
-0.180816066312695
-0.47548540062372024
0.3654323982920619
-0.33949634564889
-0.09584268475827065
-0.12352915400895016
0.23910304724349252
-0.16436282200906704
0.06654849775163132
-0.10158354074512117
0.07334785222827418
0.3339880118177569
-0.015104583461175736
-0.02542073101929842
0.4470132556767641
0.003250060441586085
0.24780323698598128
0.00138599789863438
-0.10719603811821608
0.14947468797533592
0.18398918362723457
0.22400439574173966
0.24755907325413085
0.05448048018170677
-0.24246737315771866
0.08705251998602274
0.0375876969267153
0.05569447318488226
-0.07090815499279549
-0.09089047462030829
-0.06372868986058557
0.28573807331719897
-0.3183409325326027
-0.20088510119005182
0.12706576774130027
-0.15030843133339686
-0.3031463524586752
0.2227741917688709
0.03615407576162115
-0.40453094301381626
-0.3046554668751088
-0.011167884497875494
0.07527203161657835
-0.274252484665172
0.1484522383516067
-0.2804829536296005
0.3074239189667573
-0.382698864482636
-0.007249691023009902
0.10971137394549742
-0.47374975980731526
0.061462845897672314
0.40181805535328063
0.09776238286856853
0.16611632033597226
-0.10041790315629733
-0.04150944751818083
0.1422855289214346
-0.054839805910437266
0.0340591482536212
-0.12286614921410774
-0.20460310781923471
0.06470812987812533
-0.22637013463640002
0.21374868475507872
0.06638286909203688
0.08792167539472913
-0.0452974961793075
-0.19352832815677898
-0.21425602152607656
-0.1341642957599319
-0.13667304156328308
-0.18449894044120188
-0.02846601049577241
-0.2082729208688113
0.15280309628428201
0.047718320328967986
0.17351138150499248
0.017859875761380817
0.1452208593474379
0.1455552436589849
-0.33213229757918394
-0.18219748857897392
0.034448462403257885
-0.058377563906144535
0.15182368888449477
-0.1314048216196305
0.0041054699965544965
-0.14820642087875244
-0.18225134497562118
0.0863301373104093
0.0175718396861924
-0.004859970334042835
-0.0015977761666879566
-0.07779724027484942
-0.16237734449720842
-0.04149774292279752
-0.35243267238604636
-0.19596468795939195
-0.07766832598095769
0.01375107706066034
0.3615550143254045
-0.14630739515101282
0.2071955476044996
-0.032648291439714414
0.11318848453892205
0.01204687830465533
-0.025525074515895523
0.006798618466951491
-0.029504519350039712
-0.19047989322665496
-0.11747752400399389
-0.1692819652318398
0.05305470955856505
-0.06868143849050637
-0.21108068112485792
0.05769434754788875
-0.032882775209343226
-0.03306106009885052
0.03796966292349943
-0.34508758052937727
-0.03471395193884001
0.07331665222632508
-0.0777924516013151
-0.2716937868562981
-0.01856994139004459
-0.09685550210528614
-0.04345029369077996
0.12865697107452825
0.10711855298982165
-0.09161624164279922
0.03854231907798473
-0.12229894820624171
0.03632901010355773
0.18199757836633484
0.01781055052368172
0.05172964167025189
0.13355085393280997
0.015676002535451476
0.017109058124326382
0.11544264805450097
-0.18934433620939234
0.09473220964049484
-0.06596262954846721
0.03178499393367663
0.10819668888513646
-0.022196938799868903
-0.22559101308285667
-0.1524609660114474
-0.11164153900655541
0.03519350048859642
-0.04970290039372857
0.04962533001075808
-0.06421669296013917
-0.06832609681906518
0.013771784747042586
0.08604290042266999
0.3263849791279405
0.1751307218435811
0.148006143180292
-0.05096971504434893
0.016681306411657177
-0.00837987513249204
0.09419638739910438
0.17504365740336558
-0.0857463032731513
-0.13450175250265903
0.18253673475746787
0.14504467552925374
0.15055529254019945
0.006321132449037188
0.005832780701092785
0.017554708331047438
0.022256127856237352
-0.006912309438876783
0.03110522161007874
0.009319747226155603
-0.006390592135974028
-0.05094726904877309
0.04425207594796631
0.09156400064488046
0.14946839923432118
-0.0010046322059039038
0.05960734688055835
-0.09252038507340998
0.12736653502741735
0.02408416825984766
0.04541208688165095
0.02638685125182474
0.1903825140738549
-0.01747036028290349
-0.019428243759976968
-0.07222157064721726
0.23496669150690364
0.23536376292617994
-0.0858435253003844
0.03680002618999579
0.08700829308699107
-0.013792285274736152
-0.026432035442777713
-0.0620540516059571
-0.027872750237921875
0.1922071959279981
-0.021505239277099127
0.0072603549605352626
-0.008028790470841492
-0.2106409214331851
-0.22578137592009176
0.06754517849062994
0.07615244994688544
-0.056772835263476665
0.21012972274602937
0.07205344694370655
-0.03701972415568661
0.010254633212505908
-0.10520656691283961
0.021348948385518585
-0.024317664612763357
-0.07596830307892742
-0.07914454126818395
0.07161866671802168
-0.3052399975850813
0.1989712878132154
-0.0005694133114203108
-0.1811014716203078
0.2545812589925344
0.331323444548911
-0.2913490370303592
0.24846427141221056
0.19456948772121077
0.15235976128670997
-0.07256273383524248
-0.05832641597569227
0.22052695970839084
-0.14834012072826905
-0.10147088907926274
-0.22073829428893746
0.16715795645307244
-0.15583938471504738
0.05885586303475312
0.22134322795259906
0.24248254212076462
-0.015900332516071005
-0.0488404541089659
-0.21728236881719093
0.04771596757608961
0.0715805568130886
-0.04373437725002922
0.1610346010192118
0.07266296464238074
0.08084605311748012
0.22820773796826488
0.26366167266977214
0.25585537793978164
0.22793882911288252
0.2662790834526648
-0.0531416686746514
-0.003391934961198693
-0.1219573832235067
0.1607229251160132
0.06750502557974462
-0.14554654658820596
0.23142305934922486
0.23316621543016328
0.06583254294129742
0.2619999928615711
0.18212424915953024
0.08866457622678803
0.18185710400271204
0.1945078967192723
0.2083118865280987
0.07274615736333412
0.16852034613153785
0.12457904259853284
-0.04188969175187413
0.11260615386472174
0.22928412958620875
0.09302712108340146
0.2850259019638514
0.051244454352998146
0.38893452963281727
0.06285426437350745
0.02922040427877237
0.06518760645364569
0.10242581832351619
0.21169964462538082
0.10119428134362494
-0.17433527889396816
0.1598801917737915
0.14634144230007043
0.027465005346284356
0.04514262811913427
0.2801729078584887
0.30746602416087904
-0.28527434366676874
0.19201653530596208
-0.0836372803667891
-0.003047355638485153
0.20108606377325022
-0.07315250791016571
-0.022114349337733086
0.03132477677887536
-0.11092261075892547
0.012102544981720925
0.05833237759951878
-0.008747397189619109
0.4292408517755473
0.19773349055948863
0.0575823806280389
0.11219483303296116
-0.12649931175998427
-0.08673608122908782
-0.09953481622149372
0.0938078225313768
0.07446246457387616
0.24532375733841502
-0.6990828713162148
0.6938706168815029
0.7524484053940462
-0.009332597209802866
0.08523282002323929
0.6732142046006144
-0.6829108770887419
-0.14569208020413207
0.7151744885480271
0.5734722213945381
0.3385822923395765
0.2799227898459338
0.6268989558963164
-0.23228111051148992
0.7382198027378947
-0.670838378981141
0.5961061516362568
0.211362520460226
0.013267194431594229
0.318034311548102
-0.23279191131682184
-0.12311986927874623
-0.10724015405762112
-0.04510570922782179
0.171067864534908
0.0516718256015668
-0.0046774507690297085
0.010131951556093687
0.12405318881224227
0.31963965773353453
-0.023235685020743455
0.2503210642073909
-0.00699048897836633
0.039898754793017695
-0.13025126891549188
-0.0661717010732264
0.19734094790817697
0.2964693190244
0.5000688895576475
0.10077859911972391
0.1513210629381817
0.13951281678757765
0.02789309205458542
0.11446111104023435
0.04743239686925939
-0.03474625257004292
-0.02698880815349076
-0.0048897734835662
0.043191348405754657
0.07125161211714162
0.16883524715350812
0.4572819255532615
-0.0029124242075820655
0.24545713255419918
0.1487748131335238
0.23900188047672433
0.14834222770698147
-0.03810923387173067
0.04730347282000718
-0.17916667102003042
-0.10334044159787541
0.12465522295305724
0.05149566461030376
0.16089654103975068
0.1926919864780206
-0.050409405702316515
0.41545867480438803
0.11376204259060074
0.05990427536038339
0.10779120551781825
-0.17885957188111237
0.056829419648126905
-0.08146509279258488
-0.09571757550954964
-0.11348959939366499
-0.11585894804452425
0.06650958035107155
-0.06263688546954545
-0.20585259074181023
0.21480155457157885
-0.09243764608215882
0.013133145553237862
0.06288821762017102
0.20937071719487105
0.16284636661714053
0.004598349336209788
-0.03805927770334081
0.09699840002803248
0.034801841681528126
0.4205429803048272
-0.018477703505204765
-0.03032898923981567
-0.019232256555426836
0.24660112242076634
0.013440018271051346
-0.14084708243244373
0.011216408080556132
-0.11728729922036296
-0.05666319980753622
0.05107598549827723
0.03416287444360936
-0.17743202870954464
0.15678419858470063
0.08821177262944048
-0.007058295598747827
0.027350493955948674
0.13928177764091615
0.012255935574793824
-0.04804808533272205
0.030441898415251568
-0.24193236220741604
0.05268101448102197
0.007932114854543655
0.30093061192605824
0.24876091137727085
-0.12688310454638135
-0.0670113284798556
0.030631331680630817
-0.025625715068527666
-0.10186294952399637
0.05279641840859495
-0.13131698280791856
0.13245246416695405
0.06356514940682362
0.1887834302703208
0.12337773042037604
0.014064500129114352
0.03114767806701476
-0.009534342033296379
0.07747246337919148
-0.04187008587188037
-0.11864571024134538
0.050429609253714626
0.0539753359265438
-0.13050145423854065
-0.1315366108717162
-0.01703996797154642
-0.026235843504521093
0.03041913076384381
-0.06075414625216319
0.0013314839183400534
-0.022009368028812076
0.02387202199400816
0.009470046028999134
0.18114838023920304
0.16292805641482958
0.03482957276607923
0.008096817017003226
0.03180160098257324
-0.008991049203856537
0.06842664815807542
-0.031017525269158144
0.13514613863738062
0.08801347235308371
0.08507523979568715
0.05405171620999465
-0.11085487670522486
-0.11936809350428981
0.028494340124603945
0.025082256962414288
0.07042221854893643
-0.03159708127790124
0.10485386851550978
0.048065234507477274
-0.06763895445316721
0.0664439718406308
0.018580143896257614
-0.12431238040725916
-0.04018751786174633
-0.12011883971524405
-0.040653734958093636
0.04989831826146741
-0.015892379097998358
-0.03081350398356442
-0.15331063911912504
0.06634289385978386
-0.0211779011043213
0.03628559070159915
0.0944298055050809
0.08387665137742656
0.0696856673100268
0.14636898172723442
0.028861945109275845
-0.0015795672618608766
-0.0597796177705425
0.09833039843394815
0.04870101698097469
-0.016190362768077185
0.08242866316425589
0.10825497441875015
0.08777989577777894
-0.03960870234137319
0.2342880131244886
-0.10891053002236782
0.08001755333064749
-0.09906625463121542
-0.10410064328036345
0.15287436847552863
0.009136778821715322
0.1827317309877484
0.07830618477417713
-0.09948389836004692
0.15994356201208984
-0.23655317985376287
-0.024582704088434344
0.010585430521418984
-0.03847852337107267
0.013499377517478157
0.12354478705773993
0.27029921277723484
0.2558135012872749
0.0250767729448636
0.01005674286655671
-0.12108022896053768
-0.09452128318599087
0.07806269910019636
-0.09232666046047695
0.06469043055908857
0.02517435902338399
0.14178443370782648
0.1313987908217897
0.18490207612946422
0.1533006324756135
0.08365954606010605
-0.12366585058869506
-0.20408144001830442
-0.07968396005009723
-0.01774967778422248
0.15971868377402543
-0.11237782471516876
0.16146534679107777
0.020927122309980176
-0.0009646750489952603
0.010404058498317955
0.07125985196965694
0.04438468139509606
0.1340568709709039
-0.034772821783022614
-0.15885644977281177
-0.01986910244596839
-0.010866964269761742
0.01985938297593299
0.04528043059252531
-0.18369630502395948
0.14025822331633697
0.09745528432162968
0.06406860384693287
0.08864378874368851
0.04857834325267957
-0.030320814983830224
0.06284986661579015
-0.01833351156478203
0.0542774291339431
0.01459256495507926
0.0782116288779347
-0.07008420687898277
0.04672470658586305
0.06971146117802603
0.16760642601145959
0.0635325921191718
0.11298851541910189
0.10888192752684712
0.11181296897899921
-0.14285009414643332
0.09301746355086105
0.14547658399960892
-0.32606985613744266
-0.1455434076085873
-0.0330623212320145
0.08867968429137528
-0.0021433622147583593
0.007164690960226924
0.09034196741653835
0.042775992784096085
0.14610692380606924
0.19816635137818644
0.28679552465434194
0.04796713947277745
-0.028127448653079777
-0.0035071928881553215
0.0709998622775814
0.029901305863344052
0.028179902284103133
-0.032681167708104045
0.10288335100694967
-0.16258772604357372
0.1877820070178521
-0.14802914251878388
-0.26739067080502105
0.21017809510552618
0.05972126650286586
0.03636955885291508
0.09406873508462395
0.039452879494988526
0.18482316877180852
-0.13358217624339258
-0.14072270166201906
0.05071956333612191
-0.2798933245591284
0.013711295804535882
-0.09878491456807174
-0.15108120833014038
0.07223454214262535
-0.1738345493310796
-0.12024095388483821
-0.06855804206061519
0.1361796137833783
0.14410965568563538
0.09284592004747663
0.012636893604406764
-0.06624763347729168
0.20287286698583515
-0.15051048356354163
0.4709517833564532
-0.16700262851958694
0.18907956745089566
-0.31080202173653615
-0.11539616406566733
-0.18151481709879513
0.1467427363793266
0.20491514754591242
0.39186667861708635
0.137433455100607
-0.0786838998049951
0.2997702029928868
-0.40775505873171886
0.5462995562056729
-0.11415687790121594
0.2320932142222926
0.0029501232985829308
-0.015787660716055037
-0.13413125842125864
0.00034440251878621955
0.140543815503177
0.3354870037879012
0.13569779120066713
0.04832185265053167
0.5126110320888106
-0.3417140306440881
0.34662774500317317
-0.08394948357644103
0.11206596594113134
-0.06593411786473331
0.2158737570010866
-0.04298403349654971
-0.10388998639145834
0.313131470688427
0.20151386675243232
0.2952284353035705
0.1393069133573271
0.4989953060891501
-0.5733797167973617
0.6011311408498878
-0.03140531102063339
0.13651941740339577
-0.16765265269587984
0.02451689418865273
-0.18470939691683763
0.02486465566735003
-0.04053623871061166
-0.10841850434335452
0.16949903714146122
0.1642053482270295
-0.3397466329284586
0.08504035338459702
-0.29698290726468907
0.12136630786408817
0.047116499288295095
-0.10616608676242589
-0.15080111624247736
-0.12138013873610633
0.023312264824783224
0.16409321002264776
0.19671458733701774
-0.017030338673124087
-0.08605466982578341
-0.08718852687095038
-0.0680170605335254
0.0886631467356475
-0.1788286393631622
-0.2909465764781926
0.359452886891483
-0.19774327430178734
-0.08563846664187819
0.05064507256856611
0.1262986116662448
-0.13060434175022942
0.12572076854019987
0.11678145138573333
0.19805689939012655
0.03951484433401727
-0.08626115867062559
0.20187155886005684
-0.1722278904898073
-0.04675613540152787
-0.13590839245899977
-0.008918816251333266
0.0390510264905828
-0.04892054729040297
0.2846156020799876
0.3353768327545665
-0.01672011350021534
-0.08998253155280118
-0.07809029685256776
0.008771933472563696
-0.05410217385813513
0.14377971410448404
-0.0497174398841381
-0.10951506211137826
0.20750078043472195
0.16518441975510686
0.16977646005559416
0.07606849221005652
0.16692769978611066
0.31280353980404574
0.07511671698142305
-0.006586500396908545
0.057905178982275235
-0.05285530154887152
0.016207186302781958
0.05561976969164217
0.06176254985875517
0.11734841646074691
0.1784914734177979
0.1806406579552026
0.19922784453735146
0.2643359002747946
0.20514003449293036
0.06727118060974153
0.052276389421513275
0.018704354708433502
0.06094196029660286
0.0672005572535672
0.003840800426105958
0.020997313621806096
0.16385176241558524
-0.0172346366066011
0.0296233734645154
0.12894031526367095
0.30655098039658235
0.16342336154068154
0.07988921638527444
0.08558342066136683
-0.1255192043678752
0.09418412408309276
0.02977706144124551
-0.19386504372533345
0.023957864451631124
0.0790204004408188
-0.03806888679775976
0.04777771136984923
0.33850589530430564
0.16022596395863403
-0.25848596784687305
0.10497541004625076
-0.07700502749180284
-0.06633832576666145
-0.038326124193111336
-0.07951578068870627
0.018708067754175613
-0.07442672097957585
-0.08592402064920664
0.17023070251423608
0.0838066020779553
0.21013330515954196
0.24607308965481217
0.24124542687868689
0.03479540493999104
0.0017991147727361445
-0.09361352018081356
-0.06172284655495866
-0.07189547648046116
0.04927126232295102
0.011794133028395095
0.21152279531021284
0.08420503395654058
-0.10751658072950515
0.03510335032561503
0.21398816555316116
0.07272689963022161
-0.17741018149968105
0.0014875780677577892
0.04175826606927111
0.0685695908889075
-0.05443648104157959
0.2664358652692126
0.30143601633208195
0.06206968976488349
0.11586456193308925
0.07244443231929448
0.0632916685408046
0.0984159965664199
-0.19769699580637273
0.034264012149268046
0.26279806124030475
0.13400025302935903
-0.1465195290427312
-0.15005676961376685
-0.2209959939590289
-0.15422179841642994
-0.004641633251193574
-0.2769375690909878
0.16331505127421647
-0.20286660598320586
0.15180228487148845
0.11098414604640575
0.19045923566950795
-0.16732984779933377
0.017428256300424265
-0.03617780678710384
-0.24358073842057967
-0.15857334883623503
0.009042111216342545
0.01618197468762134
-0.3022644954344334
0.16575620016763945
-0.42256324326767364
-0.04317084209160988
-0.02553234595823559
0.014004051871143511
-0.05357154488255053
0.13247369081639795
0.06279889115199255
-0.0758324506212596
-0.31220193843575533
-0.11621629515408831
-0.1037524644090793
-0.4011405887008252
0.1699320634484642
-0.18832226304089006
-0.060904131499729376
0.08485802260176731
0.06365223753521247
-0.33383896915010514
-0.014607907247528128
-0.023147260228441345
-0.273402211452511
-0.17562673767940004
-0.22477914359047227
0.00466081721180638
-0.3046424380115299
0.3252185280414568
-0.24855004881899315
0.0049864803432033205
-0.0640772233504289
0.2244030902528867
-0.0054770334149490795
-0.025159333075217852
-0.134789821872629
0.05411554152391401
0.06253496695230328
-0.1101865925446795
-0.051429230051099395
0.21852516005179418
-0.09997755917679499
0.2993978009675529
-0.20247294900026194
-0.13929681100793004
0.2177165713192634
0.12162360972991383
0.17923104704245596
0.027570031764219727
-0.010112352500530225
-0.10668428536480143
0.044589310284454106
0.04128713162948442
-0.015094811346222703
-0.20906383310127544
-0.18709359150197113
0.08283779476836652
0.16508960930237734
-0.0763907260785766
0.09020606419608772
0.42193706011042664
-0.3172158081695411
-0.14880194336054936
0.22747558740956914
-0.47168118021315736
-0.23158072679442254
-0.07729350694291294
0.20362237662439694
0.28289660559719293
-0.3149168399192584
0.2959812349108064
0.13685038797206897
0.16927528546264362
0.03231613296717593
-0.18530027856097395
-0.06338348539583274
0.12796838557923057
0.09811826088228263
-0.07542676369094553
-0.03520919029539829
-0.23886202328190892
-0.015298783117102173
0.04536096797568294
-0.49625038634176605
0.16981657012169687
-0.44389948762422005
0.2238028479727399
-0.30198186688953954
0.042712327568004124
-0.05049811279936776
0.18159591556039087
-0.023541619517173578
-0.2350305157180115
-0.25053229120174314
-0.1115004741772135
0.09534524062976263
-0.5125236294694262
0.029919593066921976
-0.6181476941703784
0.0033958946985508517
-0.33251555812753797
-0.04547560306320684
-0.16392324991220447
0.012925469261801997
-0.04661843434091902
-0.3321549086214445
-0.237564272185603
-0.4671129990080011
-0.09336705595608581
-0.6876852264640327
0.2728503878055582
-0.6408125951390209
-0.10680290879295327
-0.1926085750038114
-0.14373569707396308
-0.27783976835278923
-0.03907330827936756
-0.023274340115785982
-0.38655931998010973
-0.3828991049719672
-0.42358171445827464
-0.21617088880225457
-0.8092655299934108
0.26335042931809505
-0.5175322799799129
-0.09378473409556443
-0.029374032931276852
0.09404444860642154
-0.16243229985414262
0.1627121174983268
-0.17224690770729814
0.007032502870386932
-0.03846071498779225
0.1123301780890687
-0.0819670966451324
0.3787785374269447
-0.11937796207286493
0.44617659208605365
-0.1561326005777885
-0.09869560572451883
0.28882994648300636
0.11553421971314604
0.24297688389496044
-0.09487060935016357
-0.15268197377027326
-0.11068386224443019
0.0854157544747579
0.06056342334771579
-0.09680949775602667
-0.02857655873663785
0.001772884395013602
0.12807673101820713
-0.17053539400675163
-0.04886262504330954
0.04227925057734483
-0.25676191159053724
0.34199030060797886
0.09610456499179489
-0.11590375096168495
0.21228718635121932
0.08085774789620337
0.0672416576631025
-0.15106301254840362
-0.13807293130923673
0.11966083828946704
-0.2790586940316112
0.008683456963482172
-0.10030392097618644
0.026213295310595602
0.2144429558171449
-0.1411753407072612
-0.26428374536299776
-0.12385559167541436
0.018998232891521822
0.20076086339818114
0.46662510165994037
-0.11078655177667303
0.1387398573941849
0.09619709565973456
-0.15312949174774246
0.45752120536458013
-0.22385489493172434
0.33871601176829746
-0.23277903373802453
0.04604745829975953
-0.11519179370635195
-0.012779755279522912
0.19097599196229703
0.3052557484191372
0.15790722046629627
-0.19803842291202617
0.4768831212860763
-0.2739741832351463
0.5970700645234075
-0.26968775250081056
0.33272148908183785
-0.07076291913229611
0.14069835248657322
0.003424258954474092
-0.11086096454481612
0.3871545074822766
0.3508777242548634
0.26327837744843346
0.08503588821886396
0.580473951032101
-0.3844799877905361
0.7347115626628036
0.09869050642950979
0.2517338339238707
-0.20340661390810452
0.24831439726077612
0.02238076098662512
-0.017403425775585325
0.3425612878104393
0.5112664109875955
0.36556462713681864
0.16106632553653794
0.5143153717521423
-0.4987520555820492
0.5371123291847149
0.003692962071685679
-0.12486194367957232
-0.03119764788734362
0.06954091174305123
-0.1497867187604395
0.04910952670800223
0.09059377538685957
-0.09519582836265594
0.024860644149215943
0.07226868514716397
-0.2725091790424228
-0.012966814390876508
-0.24384320399558743
0.08767030887364483
0.12471367080610765
-0.2682418468647732
-0.06367103877506003
-0.24461258659085772
0.013850794571255926
-0.044154827815960945
0.24431145188804856
-0.07694011721538721
0.010086043592327294
-0.009291593779904584
-0.06536222763416019
0.13558788451583162
0.13972452522539833
0.26568449037150665
-0.22128612754254562
-0.020588296205207947
0.3013321762607961
-0.18994112286162623
-0.2085620287665656
0.15839171885249947
-0.2308403877201282
-0.10477453880569786
-0.33248613650736547
0.1963614644427301
0.28477658568636766
-0.22141657923961794
0.33391284577658703
0.12083900053492759
0.22095023392254576
-0.19960319490863526
0.02986232328092457
0.010625023325197382
0.050459095863804045
-0.049717967832603724
-0.09698799214851338
-0.09197060259824533
-0.19755865653172527
0.07008593034082766
0.0005915210129138284
-0.023993197804057672
-0.09365637254965532
-0.05355625633512723
0.09228650614035143
0.15788612971550015
-0.1617556930898035
-0.06003899136394087
-0.10431700469254866
-0.2806821024789614
-0.08321448514364045
-0.06636143222960066
0.12223335633415683
0.08374736968496042
-0.07523515848423444
-0.058580169216127326
-0.050219532164877546
-0.048743536300195144
-0.003301722763220955
-0.17564334886161662
-0.1138978099182669
-0.03954124747295261
-0.15339936025820958
-0.015027250812971226
-0.18449368671836616
-0.09930356239902555
0.05945828423649105
-0.33887416356272776
0.0538448655588892
-0.01358532433868032
-0.04427016974858393
-0.006925915889195959
-0.26470189778610903
-0.12403052849797629
-0.03312503388501616
-0.039869220957507424
-0.1768380366292527
-0.12838160992678357
-0.12939685899750428
-0.09946690191534191
-0.264815962572509
0.2325877081643419
-0.05556989337209376
0.00021384171047650148
-0.10188040762180825
-0.015249345233016893
0.08862525330256184
-0.27026115158171826
0.013394994345509852
-0.1269849712634068
0.2240185933128968
0.11857207714855743
0.08218269901476963
0.20178336295852492
0.22347154960247348
-0.11178747190942426
0.10357288015349697
-0.026311169269954745
0.05712172976462758
-0.05862851550000391
0.11116412629444408
-0.039282818395112856
-0.005559090781566574
0.01726064745543495
0.08204875150683176
-0.04173165780734067
0.1274101362914523
-0.08330436837140782
0.009156256449716196
-0.05479668684131246
0.179442231654087
-0.0997515233350082
-0.21779389551952313
0.006612419099568651
-0.025110043250660578
-0.10016303530824487
0.23894213832901334
0.05841244029268579
-0.23734109505491363
-0.030630822433108384
-0.18329628042916496
-0.027980880393350015
-0.2374958000409554
0.16534755228567508
-0.16758453977987547
0.09354727481744947
-0.0837961840716316
-0.08369297542710923
-0.08127386948267991
-0.2773296323980949
0.012655388038958031
0.17078981335086896
-0.04387810901730495
0.13067144165040487
-0.10022757913805938
-0.09512117240624361
0.0187685036109097
-0.07657540109895296
-0.09260867295544706
-0.15842893176782535
-0.026336617999511376
-0.1733332067833764
-0.15774975290193977
0.0700070303553346
0.031155783740247987
0.10058466737063369
-0.0954184129644657
-0.05609551192054496
-0.1477238270697187
0.08380262841025511
-0.0415981289201592
0.08217711963522002
0.03452351660222404
-0.16468423826379
0.05667945196727054
-0.2375237118345043
0.11428099307805922
0.06737883011212953
-0.011394149851817383
-0.06231500808502073
-0.09904439626455448
-0.017027383634752237
-0.20612669633025474
0.04173400993195909
-0.18726796834761242
0.11732019728833017
0.15337932209257202
0.06682344797104232
-0.11964397056503495
-0.0146075085117491
0.050980092998649994
-0.020783367335411414
0.08712940350928032
-0.022056421511934852
-0.1246484848671003
-0.096131192680741
-0.1235517787747264
-0.1683175501113529
-0.007884530428229109
-0.17055725681408765
0.04364349424769742
0.11584901849026513
0.1298481059331412
0.13851303454567246
-0.026003418691732574
-0.06634781685195161
0.05648944714071629
-0.00791976805513024
-0.0034525636266577345
0.03252633093173399
-0.11084877516940983
0.11013874121372592
-0.09403326489350351
0.00448175610138137
-0.06528723433302958
-0.12758107502505367
0.023946330626237917
-0.09226664478078653
-0.03908606660181352
-0.3729336056054841
-0.17917947552806118
-0.10508730149462214
-0.10546397708379865
-0.03632304638229271
-0.07640170951551596
-0.2175902298594435
0.12629846545429146
-0.021528530195576854
-0.22027516453068227
0.4378688898299247
-0.02261020491445984
-0.13244130152769357
0.24251276792678592
0.18011903138487872
0.0544303123084878
-0.12070163383152116
-0.34452691894786636
0.057946430188709305
-0.3221000947731218
-0.08096052398892993
-0.11157565611653938
-0.06825857618588801
0.24575550265979654
-0.20700309460768568
-0.2779494009523724
-0.092023025124742
0.14550719603500814
0.20787748871688919
0.2471690689172705
0.021074568739341625
0.2002435323953914
0.300061098951966
-0.1502457883963024
0.4760331712827369
-0.20890607806216305
0.25017016576221185
-0.08006410524640827
0.22703333413558832
0.04570463761645708
0.1650783294527042
0.3085359477927007
0.2970457937460135
0.0951815523174434
-0.09379519702576686
0.39824330472436553
-0.18969335743222585
0.5672013512065157
-0.08531906027364558
0.22110272828579036
0.25748008149820095
0.18565941691798934
-0.014200773656253699
-0.044735863022276105
0.35991446966427554
0.35315255226692416
0.2405382851350518
0.2976623905306365
0.5149302256453416
-0.3042578177395384
0.4298813870826355
0.04944779252279382
-0.03399405864726238
0.04395285258821371
0.4239275640616514
-0.0969941306287972
-0.09834642934851812
0.4378851124992272
0.3552814502293028
0.3553380997050314
0.09981260296781955
0.4238530337287075
-0.460716622329637
0.34655238613816
0.1727989836413922
0.08315482166283487
-0.19941578733422038
0.2674899683202131
-0.2166136826544281
-0.013397862384376619
0.06845954265772111
-0.023239457860817648
0.26718158726170543
0.2248015023843869
-0.2993508788898065
0.053790108744425004
-0.3502224524517366
0.07358700814948127
0.11413480749778296
-0.18889968204875315
-0.059529745482598595
-0.29382456474338003
-0.06375821093684003
0.17552751645885917
0.11143550564048911
-0.02129442231814955
0.06046936966791757
-0.014030439735921293
0.31744207250264433
0.1719046605128224
-0.1717593046161232
0.050807044234454375
-0.01779887589068148
-0.10139558942468424
0.08752357579347478
-0.10908385706471936
-0.14858027448361277
0.06960251721256284
-0.14181193569783282
-0.18334562354315537
-0.05419725147651677
0.04883856386925564
-0.011576890585085778
-0.020173736376143926
0.05120988061663653
0.07280375601220433
0.18644944174877234
-0.10757127937038193
0.05057682680104076
-0.05934879176759177
-0.06428028716809668
-0.13563947507523766
-0.06465340986561731
0.09593335461892147
0.17375536383026374
0.07643014800465124
-0.027115584613776618
-0.15038101430161582
-0.03348937750696285
0.021754861835998333
-0.24865914742307402
-0.006088906825767302
-0.01493815506039637
-0.04312261499609931
-0.2106493364336907
-0.09866982556601266
0.03875153125384676
0.09749578025048823
0.036300549410004795
-0.08899363381743214
-0.011140992262645347
0.052786929202635106
0.05197705406572287
-0.19241266572928528
-0.03954424103733119
-0.09164772104737819
-0.07714062033668556
-0.10424667877493426
-0.04729974888467586
0.12758414670192583
0.14489309969104727
-0.04765169089196772
-0.07941453727471001
-0.05180126036406561
-0.0980349405914776
-0.11497730323906592
-0.0561016726004176
-0.016132778622077272
-0.20788821825784676
-0.21519306917865721
-0.09404407457808366
-0.1239298954926367
0.028580016224660488
-0.06997192750390366
-0.019945599935357168
-0.03113494449555619
0.06107636762583321
0.008483921091067478
-0.07795219428333806
-0.18982700288298907
0.06274916515017558
-0.05104023043288379
-0.17360933016119118
-0.04499851762873237
0.017010096543818003
0.11686473883807175
-0.11001622771434919
0.013095157734036005
0.10037897178511494
0.04148391071255068
-0.038304101941181265
0.14115633923213872
0.16219878659629772
-0.11055112668362332
-0.04001617679081122
0.04050997944452007
-0.3392085354982783
-0.24867165648411413
-0.04010028323666329
0.11977805769251154
0.09925799369542371
-0.15038650318211427
0.008485141216213344
0.14922498988281804
-0.08479240125963478
-0.2119335999621438
0.016057069504125113
-0.03174081746817201
0.05572565476297377
0.12425507650075739
0.022271110542907674
-0.04367948993309958
-0.08052323209978349
-0.18463935879369048
-0.02274057001796798
0.10927628667988522
0.12084394961381623
-0.06022070985787343
0.10396068058206458
0.013621412304540125
0.025637041573106818
-0.10324659691906037
-0.0996367835180087
-0.061173060142178694
0.03222064974419625
0.20894724870654827
0.19984798675283558
-0.10694077026973063
-0.0437227140475406
-0.08905194438639233
-0.1676655092684395
0.15908515110469043
-0.10878684748979367
-0.03135770302275153
-0.08272157917512386
0.19690539444899932
0.09399575751747027
0.19311680716775187
0.21988189231574978
-0.008460627291416545
0.04752383787525463
-0.008279829275306542
-0.17954509259770143
0.18625236121016459
0.058581383317851725
0.06951994881090845
-0.12339728780512572
-0.04436802485271278
0.22723677292486438
0.04687080117016631
0.031096834701756598
0.2532131087605551
-0.040861847821587874
-0.09798325040013256
-0.11420491976033048
-0.04547642691602229
-0.039168968799865825
0.07914070980184953
-0.03278647381435256
0.05253033033926425
-0.046314803541279675
0.0031433024379221054
0.06716750791193528
0.029520938419965365
-0.0011672770444236663
0.0183925084511016
-0.014957382063759055
-0.11807294771260084
-0.02078018962409161
-0.06818683093162066
0.07160480658563988
-0.012318913304267067
0.09960740485463296
-0.08915112293502986
0.18293535654011006
-0.01871514174207719
0.24995325190786602
0.022960450028229745
0.03449586188392273
-0.1630245785323615
0.06399084573657887
0.14564055804418152
0.13175296065095982
0.11665704425359943
-0.13306196405852544
0.10072285588107019
0.11851137225949589
-0.07906183856711221
0.07379145738792744
0.2307602422744914
-0.05363093272810629
0.3618033657383851
0.08181603741663991
0.050273532586072485
-0.10542508435268177
-0.064641972765827
0.04940203710444547
0.02951151071226347
-0.024758785606548213
0.08097994764053154
0.09028207638471017
0.12743566731909883
-0.18571767887852084
-0.03271495243511254
0.09702768937201345
-0.15677204573299852
-0.08611314596436605
0.11235234787758978
0.0293140813276857
-0.2171479833556379
-0.13919691209200594
0.21595762214167938
0.1499834223951963
-0.3216035907993964
0.07822722193398456
-0.12377237893712603
0.12520944787969476
-0.1669729171173737
-0.29804842734040105
0.10330917511064382
0.20636694984661708
0.17888562905349883
-0.07204477822646595
-0.07842589517094646
-0.3185157232879058
-0.16867329762058783
0.14674944545382995
-0.06232888400233054
0.0845406146311689
-0.12887420725799903
0.038057096781237955
-0.3579026537205846
0.12849255075227475
0.03046285166370703
0.058906358965539876
-0.219636662069611
0.01205957685748421
-0.11354497671812021
0.11049620123395316
0.14792375056374313
-0.32928367698680233
-0.019540383159371705
-0.3190208009116595
0.07132581048358941
-0.21757776274550192
0.285600699000209
0.030423812062983835
0.1536768504105047
-0.08868720683477299
-0.0007538628974657854
-0.2774926258597056
-0.02750352607591926
-0.009344152710407566
-0.422215721047607
0.16352374248108306
-0.34335093555066437
-0.03644903171370371
-0.25965984055624997
0.02719296259086367
-0.04842224740001625
0.08594452028470467
-0.012835874270532847
-0.23871844535560913
-0.16468350381015626
-0.06561922191095644
-0.029265024972827045
-0.41846915290878844
0.22152855640824326
-0.26748437264290503
0.051146505570654734
0.109555637183353
0.06269616979355103
0.08244533041215286
0.036825832228104684
-0.18182646121218698
0.03315191739160666
0.18551115914508423
-0.11261719170633411
-0.038988550705565915
0.24166144939076334
-0.05104190494088515
0.13955331901075782
-0.0590030747044332
-0.1793895561963601
0.09013234318714222
0.0026806116662871746
0.2286840327115042
0.021522534909020542
-0.03846948178549323
-0.0385396238549779
0.08085989491709346
-0.1409182408806687
0.0370107179035182
0.042373019737766464
0.06974799676972171
0.03220491807498281
-0.09746076232659631
0.025444812518673688
0.06030428068134452
-0.06965162235439737
0.31474718883658964
0.0014717448602890202
-0.15416290868269777
-0.03005160859284489
0.13477085698331764
0.0969647634493327
0.04808012166683152
0.08217767166434281
0.2640631015796555
-0.13209517963420533
0.036262353800461375
-0.2396099064315233
0.24583289400688044
0.018328058778077572
-0.011822918153428136
0.285303990247733
-0.03095995428845304
-0.3628622237343379
0.017512942073095294
0.03299529813743231
0.12813541444550192
0.09716494343837023
0.05106229099100691
-0.07243292447232418
0.05726387373891313
0.0913962833122401
0.049098193943247985
0.02126949085604135
0.015894042063285298
-0.13671697145381465
-0.12501789202394928
0.005934513509867895
-0.06024362239771481
0.10815980854258804
0.2426830365476198
0.0009272068853646452
-0.013983401790012605
-0.04914043398841857
-0.13937516342264045
0.16112106316945587
-0.14072914843417123
0.060444037679209965
-0.007755457879682273
-0.03419138049077019
0.07943000411826227
-0.044534168794295684
0.0304169187689709
-0.011006542822878461
0.16631184451772857
-0.05426041808101574
0.08860848408076603
0.06659232884863539
0.014354920706480662
-0.00961609289653019
0.20858325258429974
-0.039214397272185404
0.1879606241197872
0.039777126383016
0.04748141461847261
-0.17678157030079467
0.13283711352825062
0.004943659504929299
0.27427157326754403
0.04613747796598422
0.031070739044918538
0.0742079067016632
-0.03079139166089947
-0.012718411717874592
-0.09915610267867823
-0.12370075957386185
0.036193144246981925
0.027555724283774927
-0.07630609818114059
0.05293453533758134
0.022686397607272032
0.13305816262543715
0.1326310731191511
-0.03758167459462672
0.05429814824350611
0.0894418351306395
0.22323030392117713
0.09278851764616358
-0.073812579324724
-0.0048351353685173225
-0.018495392628411034
0.28969967624950466
0.17508779748069936
-0.010621355445968792
0.0848179890199134
0.2362139546384111
0.24044860320129455
-0.012401942405089336
-0.04322490331490502
0.005900382948676133
0.18765989941299124
-0.05148878439331561
-0.03877882696254473
0.08366100265029382
0.05120152434173767
-0.09340480278686737
-0.24599690391774565
0.04303208330372859
-0.06654273041779882
-0.0010917240265617013
0.21334751355410658
0.12658694979835486
0.11914755997604161
-0.2952061386194014
6.446700489271071e-05
-0.036692552082654276
-0.312324778654308
0.16418547754313426
0.18627720947288845
-0.010655393763281867
0.1547359447556207
0.0081972420853093
-0.2614079039134797
0.045780408224568435
-0.12443634373248484
-0.19273882410178844
-0.16415764977525962
-0.001439397365070983
0.00798718227126488
-0.1255043238205862
0.04148331976120116
0.09325244067892795
0.1775576516149066
-0.06276843851822869
0.16194193024177483
0.10404234536290562
-0.0059429975530866245
-0.0499987222756593
-0.10382721180214188
0.17284432770594968
-0.08118800140844797
-0.04811661417677894
0.01571538382843044
-0.11768308009196655
-0.09504124047761206
0.1255593292658716
0.049692936767486685
-0.2575394054706135
-0.3135334786565529
-0.1362743256875375
-0.14385417025458372
-0.04013489682774634
-0.05871975756120584
0.02367603746944069
-0.05951607400934181
-0.27394248666053067
-0.017396919307709986
0.1399703348360052
-0.048308348201039006
0.0013383109891939823
-0.058003835703127435
-0.004806559022364053
-0.06146729153594368
0.09998951201986149
0.04530254955678131
-0.021384626810036306
-0.12017435379039841
-0.07370725642090159
-0.2165395218474864
0.10127807814357757
0.0440858430774097
0.007213236924296962
0.00668540654221763
-0.04870897253814581
0.027231155324737334
0.06010182766380961
0.04114080693110977
0.010920136085686184
-0.001849372713377201
0.05871678972557248
-0.08093543885909188
-0.1845874463046
-0.020106122357973537
-0.009897776525257836
0.037516329190707506
0.09398074252838505
-0.16562569843209143
-0.09652511062961158
-0.059355478582430427
-0.09850292991095054
-0.08658507227720608
-0.065701535037165
-0.019632309255395036
0.08183796691265861
-0.01952013935215384
-0.07037383702561249
0.0911895848576858
0.03185036404812255
-0.19907686785633047
0.04710221145202804
-0.028771083717090952
0.05309502104266546
-0.0630025323415389
0.052130189717296875
-0.0617240131319429
-0.0281262697948408
-0.08749117671555148
-0.014475014168907823
0.022584447324993418
0.04178819686219379
-0.11134859187901414
0.31145795277717747
0.09764519986104234
-0.22588870740662467
-0.006939966017279559
-0.11603867054630464
-0.11577729451918473
-0.12525642132739923
0.015732452710408663
-0.11073957451256407
0.20561111846844365
-0.11133253037984786
0.025052745450541803
0.1880282773891458
-0.0063423223887966495
0.08561471922698205
-0.05348881465302182
-0.10007186969004697
0.013771557677494849
0.013245465032672802
0.13539791190998932
-0.01906305935912845
-0.07370093068704221
0.08806407210014927
0.015590862247326117
-0.03765144519423232
-0.045543335554192536
-0.057503451133587305
-0.19520084804204454
-0.18377110336067692
-0.09285867464265445
-0.06385548777683199
-0.21364284406916334
-0.11150584554590966
-0.13378838451411573
-0.008619191289482615
0.12306130911834715
0.009264042021946297
0.0787164295455229
0.07081572906650344
0.05093957349676982
0.2098391846059195
0.04011961096001132
-0.1584210936302793
-0.03933825692979676
-0.017112045858729826
-0.04225500328518056
0.13033147206183449
0.20252914124766053
-0.18479716311288066
0.008586452777788916
0.15042386963019996
0.211692906736469
-0.0733377345028207
-0.035392049850562025
-0.18857403535794162
-0.006497218656702712
0.22083666349693437
-0.1948120895326861
-0.10692913624914172
-0.11722148886540543
-0.09026478523676056
-0.06702918009259728
-0.05925432874216357
-0.10712557865352879
0.07972597286148222
0.1075044578371573
0.0663211043745783
-0.026756505411364588
0.1980265899209578
0.011635995993959774
0.14733386219272487
-0.05222772633754497
-0.02148424971953665
-0.23718272918792088
0.11862763483295916
-0.00042820675257030207
0.057353978182118
-0.20194411216301442
-0.07589215612832033
0.01650498690861754
-0.13656821048757045
-0.0331883463605531
0.10232701880153003
-0.03153856610601721
-0.07991532331022119
-0.0827618620909094
-0.013999033177420954
0.12927462920421107
-0.1342313819178585
0.18263627996571025
-0.02286738812028188
0.19900534845412188
0.02918590236363695
0.07949216736552175
-0.19662174787103523
-0.18953292549665596
0.01930543905826935
-0.00012116312328090989
0.14775936158187747
0.053654946657834116
0.07088075954350384
-0.0726240183422256
-0.020389405074024647
-0.12155533842753774
0.042135345666865956
-0.12850810364618273
0.017632494680836882
-0.18213315712675635
-0.033404131306004864
-0.10434555459376521
0.14609642442717138
-0.13837071853553776
-0.024935558983804805
-0.12096626506635982
-0.1813363804591676
-0.017809897229671308
0.026743287871776524
0.008985404815011597
-0.10251118861777553
-0.04940943699303287
-0.15514768103587878
0.05999542237585693
0.007914950646111595
-0.1753232397027814
-0.007306562136987719
-0.0604467091651296
-0.12061796054093955
-0.16147978403050897
0.09668384275564283
-0.0756353412328642
-0.228751741841504
-0.05014271103901165
-0.05142511988711383
0.007505506698984574
-0.0718519004063614
-0.06261827377696008
-0.035225558518209764
-0.11353293665995697
0.09554492349133263
-0.21725356751026398
-0.13620077110042278
-0.057546767489217755
-0.03003375218471576
-0.09376588790259338
0.09528416478636564
-0.001691629946639691
-0.12909117757729655
0.02611387677770198
0.03961971057002102
0.08333675226147001
0.07983445199517142
-0.05630495059713934
-0.1010540201682387
-0.05533904170304104
0.045766472242456904
-0.02840394622892063
0.059585550856646796
0.026821594255617053
0.12793612469568735
-0.012796809320282791
-0.0005026972011319417
-0.3023608431197561
-0.15019265295723197
-0.06733467197771122
-0.008373800549225222
0.0832060583131062
0.014670367441657747
0.0712329695878104
-0.14607600206942037
-0.17714767360472036
-0.1264484934890355
0.2411758989540481
-0.25725093682621375
0.14863486007038904
0.08399883010370725
-0.08179687920108308
-0.02961366605270772
0.08342583904880016
-0.1730371049723216
-0.0060689684358539555
-0.17189569459593085
0.10032406114958918
0.09981627712698245
-0.1073097585874366
0.039557322438970324
-0.14981534750848502
0.22325094175014001
-0.046117640957260474
-0.07639809461386374
0.024765945505477564
0.09544081295389974
0.05403935447018812
-0.015980672985356523
-0.17473553951700616
-0.26614605329055935
0.08231282651185405
-0.12783505791145205
-0.06890237049690565
0.05783042313746104
-0.023149613942349375
0.012369391501705967
-0.31292144373003367
0.0728135544079186
0.17526653194009265
-0.008429102064873581
-0.2544263271568075
0.09411359291646844
-0.30078563906879763
0.008159949494833495
0.10426236854439705
-0.18067541798233724
0.19425481796333235
-0.432566066278666
0.08529576284020136
-0.05511709107221987
0.13163546470056528
0.09338639544497293
-0.05803793463470862
-0.08893373949125272
-0.09809389336413311
-0.19528448582446928
0.03359773803106753
-0.04274303367882006
-0.4069508263321302
0.1598711291124099
-0.4042676382383893
0.07195905899920797
-0.24033213150046615
0.24065434026389265
-0.11921869400574615
0.1418536037708096
-0.05402405754651481
-0.21328234839530286
-0.31253416624933206
-0.16696780858753574
-0.06147529314106873
-0.48789877449538316
0.27163139216180443
-0.24390159074147208
-0.032944565649972724
-0.00031166012014490304
0.12781094965567058
0.0532175182262671
0.26580600574904223
0.10735214520985117
-0.07970039849657522
0.26919675811184796
0.04889382292386408
-0.11635682604403927
0.07754865332431969
-0.1550230802429833
0.03793445705389692
0.1421139156107687
-0.02352570673892936
0.18899346390640182
-0.01956639621652751
0.25658449345857415
-0.06641616387314024
-0.02647714856756968
-0.025713355828310136
0.0949020147715561
-0.11407580851424921
0.11178427883549283
0.02264267897066633
-0.098042535110418
0.16228767758194235
-0.026525829162396354
-0.0019148942462681345
0.09843707459582611
-0.01224142337706411
-0.15157067086919318
-0.1268397764556675
-0.18381004395643916
-0.13145452826534
-0.02456722417114493
0.026270459186382523
-0.005058443019562716
0.15298381528093724
-0.0528091026394876
0.021726531748729672
0.1990019126238376
0.03390658888778183
0.09224444906254145
0.14303253694140716
0.055584419253558455
-0.44045980682684205
0.0595373429838572
0.13677499803310628
0.051122532148383755
0.11320859597948615
0.1364360924889974
-0.10396801407189359
0.07686872844216948
0.1102346296902462
0.11775349274899652
0.018587245786795603
-0.16146366337801063
-0.16297557553579867
-0.17473363540671713
-0.09184164240553228
-0.031389414513681775
0.06962058902716899
0.14589309206456055
-0.14151206379377002
-0.028695981382700367
-0.13624924275759495
-0.07852353563380562
-0.12398942733193802
-0.14162376570329302
-0.1211969024560555
0.002973711226337227
0.02997035334200657
-0.0370337917882718
0.04567661918434471
0.1439888043359699
0.05244420297575464
0.0742007730763817
-0.05042399479670941
0.16778347569360344
0.06498896780708895
-0.06369897770473243
-0.024614229277983516
-0.03571622613629172
-0.03254053775652361
-0.05691510295606195
-0.0419954833316749
-0.1146435482401658
0.020017780282965622
-0.11928283682993895
-0.05109403047789083
-0.024438844791295107
-0.006087804173245347
-0.03312897082257917
-0.04351757314098793
-0.18724650666899284
-0.14705749072016672
0.23361013872356218
-0.017937924315617592
-0.024159256068888576
0.13537161608074358
0.13112568079045914
-0.09592720990299662
-0.076458042484142
0.08046684836934985
0.025689868266139854
-0.07135729908026807
0.07223555192675746
0.16839368717762862
-0.07936994595086554
0.03999479003831222
-0.3134404685575006
-0.054484409954227556
0.08190711453680087
-0.034815759597224084
-0.07228584987069646
-0.05969940762044241
0.018329891981197652
0.10595984425213019
0.13293342938879069
-0.030448991624988004
0.035890403433903935
0.038940724728388575
0.11298500829444709
0.10093759120770125
-0.15475477904118398
-0.013465385375319947
0.17318221396978428
-0.06208234469038995
-0.06449945741443457
0.21013300626537035
0.14982440214714726
0.01915990158713542
0.003627582733419674
0.147932582775747
-0.24411679503958295
0.17695823079406386
3.76415464427732e-05
0.0838442167786731
-0.02164309499666461
-0.11510775814616497
-0.0836238816360388
0.08906848411728967
-0.11848936176743316
-0.020833939151835307
0.1526668415569848
0.018098848707439334
-0.020891078958986245
0.04734127787931876
0.00898120019150354
-0.16415102524283973
-0.0010539189662517462
-0.0859724209894691
0.07478963718209218
0.17598245625991807
0.23444152800143975
-0.19176611576468794
0.11954570092145442
-0.01739200685020449
0.23967246183091706
-0.007838410454054928
0.020771137845581895
0.17012540756790542
0.18335072530656382
0.03428798703805015
0.11950993700575441
0.0008238523614679895
0.02418736364096429
-0.011995203708395451
0.029885009924622254
0.03276874457629114
0.016501412604562338
-0.09290542436997432
0.16456779561519946
0.18864648151899072
0.009420766105747316
0.09306502746509039
-0.011253518805306631
-0.13613090783368773
-0.00791851622283149
0.027482466050729515
-0.009328563614308076
0.04075303357542322
0.18644518131513402
0.21033939805619908
0.17389456064001213
0.09553358880096445
0.05144744042117729
0.042578291634691005
0.058063907256128255
0.0951027788825191
0.057911626647955225
-0.06297305386391067
0.4147520664146918
0.05996174154575132
-0.021623060819525426
-0.11642161947001373
-0.07262186028929941
0.18761373889863123
-0.1414473214648114
-0.04907175124477049
0.3321190939965004
-0.13707672529006718
0.04428988882870955
-0.020379037512869676
0.1669803681567482
-0.20595518543086785
0.0471813681943365
0.15230301201165292
-0.07758108414111999
0.03425275624531057
0.05570818858217723
0.0907263785121836
-0.07768816544402084
-0.126867050090639
-0.197358282820501
0.05081427903393982
-0.04503122984618892
0.1823947873845575
-0.05139559900294212
-0.06711058871007014
0.026541742291775392
0.3474890539751827
-0.06670983683029073
0.11065526842896989
0.13963918720147495
0.226399806573039
-0.18831255272921957
-0.11766504367611753
0.1621647069593073
-0.14893196928866084
-0.0002655738715978955
-0.11002662929195049
0.011090662679451514
0.12868547331162294
-0.03030301223499424
-0.19417292483424242
-0.1402082278408502
0.10694928836475885
0.07112023403983034
0.27589007796304055
-0.07952176741015071
-0.1119979583699404
-0.0002603705987459907
0.020895832349881686
0.07401708503134426
-0.23362399000739287
0.03013716858748433
0.033522555462574245
-0.13666109899564538
-0.10604762855684312
0.09142893221933177
0.03936212961914312
0.26638082016631137
-0.1281438475851545
-0.18317009425024225
0.21932261324940963
0.08557217804684265
0.1528116554268745
-0.13292203608257985
0.18206497045827635
-0.05766081972801188
0.1385992812292212
-0.031380581592111725
-0.035829065757464695
0.07387192778816516
0.21107384848921754
-0.13936534749838192
-0.023855098296146102
0.2861196868535935
-0.09265167319301587
0.19064475568296999
-0.17328894976876963
0.03978887890602955
-0.19777864295931263
0.010539616147193029
0.005550134878006674
0.04734809162197884
0.00253889747661524
0.1064831015020062
-0.006413022411034446
-0.16074468942862627
0.32822282930159596
-0.14265658692095862
0.008532435177057434
-0.13234450105211507
-0.12046233407672226
-0.19534462040631162
0.047582345449846554
-0.06518546870740594
0.16329541551963553
0.02112609337793597
-0.31147235825024067
0.024969647308831333
-0.014796720882423717
-0.03976233970049485
-0.012930417514098338
-0.025069917150697625
0.05660123774975892
0.05102596305702287
-0.1678086612410532
-0.2624702032431162
-0.3199869515618697
-0.10709112162390048
0.05690068472539729
0.019612045914577415
-0.003535169380842819
0.02316301112026763
-0.010079447309016455
0.091215391714466
-0.0006242588143576815
-0.20553442209388856
-0.14987983633389787
0.18101400050469066
0.4689727654403188
0.040944201283716605
-0.004683294873658402
0.3239910752031762
-0.2678516079104958
-0.04987792429553607
0.3082689882636851
0.32248843119741577
0.1517933014591647
-0.05575012054040184
0.46665503458502894
-0.2747348726709662
0.19111605945075205
-0.22234900545607636
0.21257746596659569
0.02756355680908307
-0.16880928691811237
0.3264765537932213
-0.049837034384661014
-0.2164943148503779
0.025419301170954933
-0.09140881289479086
0.24962749293120842
0.20102916521098227
-0.03208769364759611
0.08148372896979843
-0.12734976447020208
0.056467980539474785
0.06401755535906478
0.1782124486554252
0.18116183503369765
0.010841920160637373
-0.039927348665575416
0.06066014652110523
0.004921648290659345
0.0487567244187306
0.24669660462171575
-0.0375983550773819
0.19393167042418283
0.2361629556823414
0.029841085639556154
0.05701310645546676
-0.025316027741536653
0.29421296828380467
-0.16328985088307219
-0.08277546207417386
-0.11844369944708867
-0.12447571548283091
0.17988043106111198
0.33191668241066574
0.1530248149823233
0.04759009214600883
0.03713453934944145
0.10716027200264087
0.1549015425431558
0.21347221532423544
0.14945496122962648
-0.13440377689829744
0.06249620700230219
0.07076825444365153
0.0989032880241509
0.3072677201315018
0.24303950798723212
0.03821045287296051
0.14530487029515818
0.13774635491369497
0.20513203069879313
-0.023865458185312192
-0.025283527256153446
-0.036470028315474676
-0.16529123654185998
-0.07588228514610265
-0.06695111967231375
0.006283148598173574
0.015250275345466484
0.01825795854381562
0.03779789259695287
0.28141490560722143
0.03061463624578127
0.20732683848198108
-0.08642550534367678
0.028550399211164958
-0.05889238396275338
0.06886174084479957
-0.007583378797333595
-0.15542345650927625
0.014623744886457343
0.12785952076336124
0.11458914530152402
-0.01279568609141405
-0.051924633356361376
0.15276475974316953
0.1485424216384914
-0.16988872377241798
-0.06579611531403827
-0.08737076181034746
-0.07464586394007078
0.004056041273323538
0.09845379760467647
-0.13347837555094755
0.1357755213239549
0.27635200428925283
0.21835918843534818
-0.2323135038694228
-0.17441065018937044
0.2561375352998377
-0.3893153959122887
-0.06971052508417346
-0.03241093535200596
0.009790845335834082
0.10901738955095966
-0.1409348001644079
-0.018738662587124234
0.01184747966389674
0.09461921595890607
0.055760077862346394
0.18393010079519995
-0.15532318806146087
-0.28885102070532576
-0.00015672477806309782
0.06181181680665581
-0.0060977848657051146
-0.15348510109895286
0.11993090661575115
0.004236748799250272
-0.1618469408147064
0.08402279233750752
-0.04475746281452801
0.13223501360199053
-0.006826742206808037
-0.12410093919964939
-0.20660680849101035
0.08187765717504948
0.06916210786043356
0.02691082698619433
-0.08772916692134115
0.1261759800556145
-0.15674262981982565
0.1228679853461021
-0.07367072536313242
-0.0713977577084294
0.2636741865656884
0.07123473210891115
-0.18634636532550147
-0.13996337215224047
0.07256429322795611
0.13102626481578417
0.0778690273232532
-0.0128338717585574
0.2018716411849554
-0.06566929670754189
-0.02913746953959741
-0.04535357505705042
-0.18025741525149006
0.06659421628614548
0.07170969746582692
0.00048811519493774597
-0.11311286738997402
0.015932302520330347
0.17866579824118767
0.07201165903341164
-0.10937469477555599
0.12737107637323852
-0.183589030350443
0.06730552033773926
-0.2059642795774278
0.0931902499396463
0.019340713707642843
-0.1514774215329651
-0.05921423372948114
0.018871888107819534
-0.06533007054468869
0.0449987744241008
0.10630710460736877
0.17719152223891674
-0.133610041975706
-0.121000636702018
-0.05133728511836822
-0.2563299749441798
-0.08058577134544281
0.05119150059393057
0.21325725046181654
-0.04377044189190641
0.1184917365355784
-0.10384021661560382
-0.04480553839860041
0.0007628022708614279
-0.17328157044282547
-0.2280710258098467
0.16858817465295575
-0.1153600972622033
-0.20392111852687111
0.24698521843641716
0.05099263494328573
-0.24166200139713492
0.06495883999470142
0.22341662120366879
0.24699532832091464
-0.3301331510256135
-0.3999755182254664
0.29091472861692724
-0.2030427335834774
-0.14417372287928223
-0.2893201491356446
0.013401440474804419
0.18477957788803803
-0.15694366528767908
-0.13834652989999452
-0.05530393875005722
0.2390923849391882
0.17639036926266263
0.2559309052181774
0.05911123879924108
0.06420066792546726
0.25999344457984386
-0.0749748873482881
0.4451688564138626
-0.08441755843356764
0.08692622563046985
-0.18743671259145647
0.09953470707596385
-0.07624378079393293
0.07567639264744451
0.0471445086742151
0.4466792538815155
0.07235870715216257
-0.10388729183324379
0.2617874431992679
-0.0945486520684723
0.4087368877636163
-0.01696215027306014
0.27692290410530496
0.02304060461467175
0.06949047251443821
-0.1802962560041629
-0.04977772696032421
0.0927253546233264
0.1445008781372383
0.11894243189075672
-0.13455158711246878
0.37394379456421695
-0.11734130926817307
0.35376234911952226
0.038793024374700814
0.26086078615828445
-0.24983556044020255
0.14362291530158666
0.01879398665612591
0.17278796553999934
0.2767793444302796
0.23974267586630002
0.10086217798067224
0.010614806006598776
0.5114421635227946
-0.15744410769756043
0.23541569071186766
-0.1423045650781928
0.010281572309587051
-0.03401530293452179
0.05664977801692988
-0.2374109399015492
0.05781967499102934
-0.006089152594573557
-0.10402493562589592
0.06732881859421617
-0.04545100461541136
-0.3086318948854156
-0.008395373505086628
-0.3612556522705221
-0.08929394487277395
0.009035995205267216
-0.09879877049749503
-0.07105761065905271
-0.12646194297168994
0.022386410074198452
-0.030783420790007752
0.08615870224814358
-0.08765151893764608
0.08165930309636858
-0.01939187584985557
0.18794105404761513
0.001126125320649718
-0.1906008233801954
0.1986551196636638
-0.2713859632402059
0.02660079108979876
0.3455293641038232
-0.12552533499836044
-0.2083952383096523
0.14838896677040544
-0.15923367774784697
-0.27119718101846435
-0.25742344198169864
-0.10348436917372618
0.12410152501109838
-0.18281212844343728
0.20778960212250572
0.02760544525980502
0.3070333124407313
-0.08042312213568775
-0.062339604213963916
0.0751931616281851
0.1566873891012875
0.04036353220310395
-0.06899543604699691
-0.135185748849067
-0.1821474278817937
0.09740279651478105
-0.030518664178296635
0.021525027762944744
-0.06159229034168269
-0.10553613353754221
0.10643430148989147
-0.1948314301720587
0.06641484732290764
0.14630587332557649
-0.1558514053135015
0.041762695847064005
-0.17812688298763013
-0.2159098924328133
0.13556534280890467
0.05753263666689752
-0.09942104740780511
-0.0013544065949097164
0.05041930318273578
-0.05017898891861707
-0.02355715733221826
0.08030027794087816
-0.07385251608731257
0.00024028779995602224
-0.11654016142005288
-0.21408161149565735
-0.14341233776156845
-0.0035215729075163166
-0.0019520208549565704
-0.16962736203203604
-0.09248187838489448
0.0842332610863038
0.0665117811879122
0.15653946268879113
0.07272949400610966
-0.13554318587561323
0.056423852529034056
0.0702905848845272
-0.3983118219246427
-0.17221081742835306
0.130869807229177
0.22234666298318562
-0.2659797319072125
-0.041390779294374715
-0.04769712360839003
0.015490553276225692
-0.04413238285186857
0.24551732976015986
-0.12595805729290147
-0.12926868385646823
-0.1958905310751443
-0.07853601805871978
-0.05753156257421506
0.008702611226577917
-0.02947030226689958
0.12282351927847422
0.04084702287590125
0.10744934192741606
-0.037956391867282904
-0.10232279995042558
-0.0811079696618462
0.00747727567651104
0.24534891085265761
0.14856113203811278
-0.005387507892436414
-0.12246661514604525
-0.03354022100963911
-0.021144203792750782
0.026491551345038947
0.0234340818082591
0.15685590540303115
0.17301116921783086
0.19093953353982498
-0.12649874599499597
0.0834376182087722
0.11531385122258142
-0.2612692157805718
0.021400517040899503
0.02509567222569398
-0.12307386131154925
0.0457481529521357
-0.05657748563415165
-0.03241910994682405
0.04410381928188153
-0.02603018500772046
0.1241561837754869
0.03366578473215178
0.09168802151379113
-0.13973375114411285
0.043018731804838346
0.04269671326712461
-0.19128886065512485
-0.118921396737407
0.12144440077906359
0.11071934227288192
0.014675077703958785
-0.026935457726932854
-0.17373095106965655
-0.11430368186241413
0.059838568600552436
-0.06887755223909305
-0.16538592973139077
-0.023336978424210123
-0.12862632055974324
-0.043275483453073374
-0.210188388497156
-0.04562926168863179
0.112443146379689
0.08638875896883612
0.02831549140151918
0.09596012001496088
0.021701701671313894
-0.011695749979933744
0.021613453120237498
-0.08838238902096505
0.04499103326253722
-0.011031993835734524
-0.1343967376554595
-0.11114472672956557
-0.014933308004669958
-0.09599407192358672
-0.09104427264283356
-0.04852349221709979
-0.0727212716830051
-0.08842183468353904
0.07898839281056642
-0.011097711657764273
-0.07470723188688863
-0.19555269276756396
-0.059778079217042375
-0.15985370748381764
0.033377557969540464
0.10474292436636017
-0.03646061919514024
-0.055932694980167
-0.03800934477183056
-0.19236681825823163
-0.08880204578545275
0.24559513228930285
0.07648671943147607
-0.22373697331599587
-0.10037076936011023
0.01927348011592141
0.05190351992387778
-0.13340806581339684
0.09452546598356129
-0.09743544874975965
-0.07739024948271873
-0.030836877094868407
-0.04544588158406668
0.04153811672603489
0.12470523975858651
0.0780994191114594
0.05844363086665308
-0.04976050154931876
-0.07367367272443678
-0.08165797890087438
-0.3432600193687457
-0.275373089211349
0.09494611735414413
-0.1170780986741676
-0.004137574121514076
0.03348162270340243
-0.10905769347791941
0.05283616275133745
-0.06756516194544207
-0.15779983880322587
0.04439818405123738
0.046581592443922855
0.07566493811440711
0.03195689798197055
-0.013355887665459682
-0.04766629338112718
-0.05260571466819287
-0.007922280193380205
-0.11672421735661094
-0.044113405027938035
-0.06453717323240564
0.07725615873326577
0.07918858142173657
0.006746439438950495
-0.011433937167537968
-0.2146304775135924
-0.03375412142188651
0.0311010523869928
0.015373046715146567
0.05570338012486264
0.26373602091597453
-0.13666847809061258
-0.11119724941430524
0.0271373550264579
-0.041555317825765804
0.05882747641063489
0.05584590851175572
-0.048118211924614684
0.1457302555177559
-0.05519044633974592
-0.05553702057523372
-0.036742255509694614
-0.1091098621564783
0.012385688157241408
-0.12160575615768705
-0.17104039526489165
0.14686027634169752
-0.08928251913252928
-0.0526122814543459
0.10977830102988885
-0.2664730712267769
0.2769011024238859
-0.17052605340267926
-0.04072744974335721
0.006356435004328064
0.22126182746304623
-0.02580371818874952
0.046554181816798164
0.12332674294603778
0.1930414782486714
-0.03521177510986338
0.0022827780533721653
-0.019457033439898443
-0.07715799611049318
-0.04025968249297242
0.06269678515205396
0.03995119745702819
-0.10622891112389538
0.05559152974509399
0.11809704184604129
0.034777659462047646
0.04344883824469164
0.006518962924114873
0.05473823125599272
0.027686094440204385
0.002893925228371781
-0.19568614407138094
0.16846984709208174
0.03218613735982483
-0.09062115286576897
0.0241910849323331
0.15959874723523143
0.05559147521505003
-0.028975951639947047
-0.004718218476126357
0.06782578235148241
-0.11033658959562694
0.0758506786637404
0.055902709767793254
0.061474115134184736
-0.11542691769579883
0.01690172040884347
0.04926665912139184
0.06777007284753457
-0.06301764421561859
0.07285444402370574
0.015837416261139037
0.032971769792529845
0.07255780962189327
-0.04924702831236456
-0.04198901513216737
-0.0016168469360485986
0.013798784134360212
-0.06936986691698702
0.16798878419697055
0.13921047490966937
0.022294501535665277
0.11388209163639519
0.10196904878528625
-0.24758685028097518
-0.07820948709205598
0.17524504570956348
-0.17285379812417337
0.00395541193179001
-0.11428138115931005
0.23272458304302002
0.2958255829312411
-0.11792241389557019
0.22804249161302326
0.09874704181189056
-0.004251438051672275
-0.038420980314450494
0.023559890821257517
0.06256939173293644
0.08485978285038175
-0.05098897011450244
-0.1156852321748422
-0.352127425619352
-0.18691725182379793
-0.16261305280622942
0.10273545283665778
-0.1641834844534082
-0.005783909300680846
-0.3680564866502777
0.04290522380018756
-0.03788841149102582
0.0648229137582264
-0.045663113815794264
-0.13545087599306513
0.017834193967750784
-0.24228482833898382
-0.09267949187619055
-0.13051188328107158
0.09219834974100846
-0.25026388793182236
0.2355063594473699
-0.5307598994146886
0.06238368128171632
-0.05070046238884517
-0.04129870830804371
-0.23146766509911956
0.015704258898929128
0.02449812664148503
-0.2497771562788417
-0.1431213040955339
-0.14388675735693388
0.18109922280206978
-0.38690171241725646
0.10032414580798822
-0.12105945457107498
-0.039695829450182255
0.14143019981399774
-0.01890387809930514
-0.09846096142430255
-0.027311324064722954
0.06380269602118083
-0.06159796215053213
-0.1527952299199214
-0.2960041498915329
-0.01848037433951471
-0.10867428829395238
0.2976953119348271
-0.23312467133336964
-0.14803574559960214
-0.05621638248889737
0.10584830821389049
-0.12477936762552254
0.21994934782036143
-0.07597956762583155
0.07268100136693863
0.23458067059824744
-0.1406853846349277
-0.004893204091957028
0.4903155855118076
0.12721645786787922
0.09214240472363584
-0.004437779619839403
-0.08374101905001169
0.0962706966954078
0.008867169187081605
0.15176558625036204
-0.042859093973507636
-0.25450021293668135
0.00012906932920889972
0.10082043142955645
-0.12971146742645706
-0.04446671427909272
-0.031154082532386648
-0.13326991652092943
0.14279653272526258
-0.1625101032495529
0.36196343036571677
0.5303126514174904
-0.11200409626010507
0.08561475408950313
0.1504411216348227
-0.31885115199144554
-0.22688302368064128
0.41252341387668723
0.2340648252702273
0.047532773946895396
-0.007675687606348843
0.48841185857851965
-0.056502370602634626
0.3452482344011722
-0.3346088304730059
0.29205566943555916
-0.12850390550656782
0.05085272861087668
0.37467257035030305
0.020826563611711344
-0.06585993284955886
-0.05079104716823822
-0.10136712973629251
0.20853732819015725
0.17749555165509792
0.09669109518763712
0.13679850062422738
0.018999900106507348
0.07788921813364437
0.09607234229385556
0.1317367003932163
-0.030863376427209786
-0.19179069541632177
-0.17870341706283094
-0.055515742228700614
-0.040165565464265376
0.390982575626759
0.29785265491935536
-0.07767559209733287
0.12138640291920957
0.10084170800038102
0.076479390015273
0.26346220256083375
-0.08458391906273031
0.1290352418668397
-0.18577109971544048
-0.1605218114710485
0.1819955070282315
-0.028895798623726134
0.15816765993770157
0.0712224178801734
0.06768785862932385
0.0072763018491368275
0.09205763179667033
0.11665655131346173
-0.06909767471185237
0.10936450358267198
0.1862023529000112
-0.2086087333442318
0.09728534749212739
-0.03368394887558444
0.1392626598674645
-0.005454869713320024
-0.09012446542781459
0.00013659136102386728
0.20691589355323511
0.26887992686847384
-0.09922344851134615
-0.02290780979321388
-0.20513799809237615
-0.0890328777638612
-0.12129400871403463
-0.10660087633737948
-0.0534426327595979
-0.11719034996129923
0.24384539022852725
-0.22231679768171236
-0.08209067153382694
-0.14048066839978418
0.09359320328856424
0.04965473564736724
-0.061405835735183434
0.1276185981701472
0.17347389917034303
0.11449668472293921
-0.1955560868921745
0.013449690896444122
0.00950833448163723
0.019522751236043693
0.12157151270902873
-0.083738065317477
0.16053344588663204
0.30134757772377646
0.028251792541841753
-0.11566543190068099
0.19555418811624586
0.20112497830131953
-0.1744124870653865
0.24103395030000854
0.007685395276447186
-0.09340289502482034
0.07677930573226743
0.1083065368838292
0.12562839416410598
0.011990163823525008
-0.17305921000076585
0.12095810419759558
-0.1401619038398114
0.09342634331672005
-0.032293898860483915
-0.09509778850225259
-0.10774383609867129
0.024413832252046973
0.1940084518301718
-0.022822805282319645
-0.06420447417835272
-0.060272812003134196
-0.05441225852995771
0.11632431932767427
0.1764546061006515
-0.1644909808029053
0.17601412325127694
-0.08844044750772517
0.1863500738322502
0.013076364371923265
0.1808095287424966
0.17680018742232595
-0.037382487116753724
-0.0011434680305014904
0.012244423510712348
0.01942031277783487
0.23945698563218362
0.16010909222330633
-0.042675361150496395
-0.03058740172982927
0.11641436727217486
-0.03525535785657943
0.06833365943218092
-0.19366722860528704
0.16979630614680488
0.0634460348454312
-0.09070435654560502
0.1260821575713
-0.007370212621283
0.173953185531423
0.10663955913183563
0.02681667740823592
0.015376196560983641
0.2111181518220011
0.1621349342262204
-0.015733521967584787
0.06305302702658896
-0.013995465359747973
-0.12756407282010213
-0.05839883778184095
-0.07295738297191377
0.013902137087322868
0.28512803300103967
0.15370075621480395
0.060061837654093286
0.03178839299495001
0.20630207730819805
0.17178680190427398
0.07780525511521356
-0.08649206907872603
-0.02230087138089804
-0.13960467331095494
0.010768141995181092
-0.03114031253216278
0.023383295061030013
0.06447875197019348
-0.07754186942934882
0.013905347783880065
0.08179365659354557
-0.14487090422741003
0.07387583515453333
0.041783734743998144
0.12179108007697739
0.01721793613342925
0.1042071609788572
0.13808221415740418
0.10447789481036626
-0.056238048425160884
-0.009940301238300019
0.03999793346199913
-0.10438542977735399
0.09030433092257745
0.0030706585670510736
0.15698267501164176
0.12627700308179995
-0.009128698505338005
-0.20101584289798458
-0.1241466137861609
-0.007977736580265104
0.025073075898208896
0.00030997493488014327
-0.08011372720691734
0.14432137437219048
0.016074502747894088
-0.19800176271249811
-0.05128459621426932
0.04609865655847491
-0.148113181786851
-0.14069186872917988
0.02719006613883247
0.06294254243858678
-0.05368443295402705
-0.06518444245348093
-0.3252046461531205
-0.08958059283870658
0.15175965247661366
0.06386561322070308
0.10982677543820807
-0.04544767727266959
-0.014782372421473936
0.07008858810488951
-0.042549845197095267
0.11969280464818954
-0.15677800049999016
-0.07678226754621445
-0.13473264458564727
0.03295858522627489
0.04913811125981695
-0.11438239855989163
0.20175744941372645
0.17045049911037666
0.07800683881986949
0.014037398724083331
0.04631690531618635
0.05105583652622886
-0.031048508508142007
-0.15884323092455843
0.053066778859456785
0.0010372537815110995
-0.07245288347008307
-0.04460310288813551
0.04340410009723927
0.03944573552701114
-0.07268142797485205
-0.06074013301238893
-0.07407582801560947
0.12394709901076308
-0.03528396562930972
-0.02301986194961669
-0.16770427856426465
-0.05492236354460886
-0.036167642851775685
0.04764279869238991
0.056997103839708796
0.02435427222822345
0.30582254716899854
-0.06561194797406172
-0.007382837106107738
-0.00626184120756919
-0.08320959691652595
0.0772900350814442
0.025271857075398352
-0.08351250685654765
-0.0928121116441035
-0.12978290163972725
-0.08593618932533177
-0.03196500014772424
0.10504699204647287
0.0544334814927327
0.048494443496614636
0.0186518997865046
0.0341123592957498
0.09115943303100621
0.019681528326513067
-0.11427354485403204
0.017829190833934336
0.037430293522007864
-0.09425825956862414
-0.11914112038071956
-0.3112492465739399
0.006706517116104424
0.13378663558389725
-0.037747177128639675
-0.05975493369651349
-0.0028872387207364136
-0.07445766972662267
0.042508864321480065
-0.1562585501299785
-0.05910017841202546
-0.18623865794350183
0.1325133054145014
0.019768936698403645
-0.22476347163083338
0.352225682781561
0.23182037039574363
-0.18413539165453444
0.09076622137411547
0.16515915665805345
0.26159771985354013
-0.006633174334756244
-0.12663935763880105
0.2671174086957041
-0.22704716634769023
0.06335364180866265
-0.05037462413860204
0.15045949621016538
0.1723604929291885
-0.1800387981274719
-0.16512954139380517
0.002936091499753062
0.0724092132625883
-0.022514352463551907
0.1308048784044254
-0.03881941281671747
-0.1367100891126584
-0.05609554160728369
0.06704841080019544
-0.07633527242992753
-0.08725247261987755
0.03124463163406336
0.016996568047565337
0.03584172995462848
0.028005863729709583
0.004078093017775418
0.07756003395414955
0.08054276865256424
-0.16771517070221317
-0.0510861408761659
0.10790347364901257
0.10046787722021369
0.12695926655889883
0.16838219755056164
0.0438294013798114
0.012632947503217347
0.12757711179932948
-0.0193508043695238
-0.0005448870359475291
0.18926913076937615
0.16627303080298672
-0.026526996094838592
-0.06276339214653856
0.2847659461927558
-0.02750411957920409
0.06678078606976821
-0.16088857217665212
0.08352383669567427
-0.06418532940929299
-0.0010784149650601904
-0.07926384022010424
0.08215591857771588
0.032430090082169793
0.08153276973446302
-0.11141536809929137
-0.2511833051139017
0.060537064866741916
-0.01459686683108955
-0.0051254895853758845
0.005107817960929542
-0.08877820464243937
-0.19742106595978653
-0.028015568912880255
0.09049387979923149
0.15740177085131407
0.18169806522700843
-0.251730290689156
-0.018251189946223267
0.03261254041869707
-0.09607966291613668
-0.03564725268768071
0.06710431401839088
0.03236600908337583
-0.006144879773533649
-0.05391238503099781
-0.15871541230658812
-0.1786851098991223
-0.22768600964753116
0.0870000020997416
0.032912331609444095
0.03267874259143565
-0.07575174243367327
-0.0343311202588987
0.07614429691263733
-0.06031242874034152
-0.3356243789814632
-0.3437369782077774
0.3704660686643355
0.6197602005033264
-0.13568215405637818
0.1400886246460179
0.6575652805384269
-0.4983143838457367
-0.14331554626427398
0.5899224029969539
0.5181491632799616
0.24882646233982889
-0.017754011874155245
0.4582277060642518
-0.33206908047120465
0.6194797474666814
-0.6348053610239693
0.33743547501635485
0.08816677592640806
0.09238764951837491
0.22748916610476153
-0.13039367776775612
-0.014534581496357387
0.002751351831789167
0.01577299327251051
0.26451196801650323
0.12883307109572792
-0.02844121870847447
0.19799927771259931
0.13710606180943383
0.1919536036527257
0.14687645735669075
0.08496618240140397
0.02987159598262891
-0.042516918395770674
-0.1877526454086646
-0.017273655141864717
0.14093249367813043
0.3238359258541573
0.322487249700761
-0.05042823459402131
0.0998124074708248
0.11456527935625554
0.180514318856829
0.11150563136235594
0.16499450058519988
-0.11784791668560006
0.009678118715245484
0.054267656490688425
-0.052609490398904425
0.2006221704266928
0.3037230885130202
0.2537468432562872
-0.10809943965978824
0.15713001807585827
0.1442083974440323
0.08669465027569886
0.2231589111268169
0.08492376710820994
0.01768933683413936
-0.20048500232582164
0.07413669282125605
0.14798927663404296
0.14008182782195006
0.06556113211617057
0.163313114607263
0.07598980391461163
0.332273443249069
0.14235192078156694
0.1259174859642592
0.03909632457085213
-0.1021824097113802
-0.10436909942643074
-0.020524634203844615
-0.0914605022293796
-0.09924170672567725
-0.27557516559268846
0.05566580223736984
-0.15993967850618046
-0.058034441344398946
0.1222954454749369
-0.06677956609632728
-0.08039801961488557
-0.04310111973253995
0.0964075155925112
0.19651695956369578
0.13558020297858978
0.03615588036935772
0.0017771686259873422
0.04707560805244142
0.3282869673057333
0.19567853030807675
-0.08017392429830465
0.17138953661055797
0.13678960007691335
-0.033781103753493115
0.04803104207280915
-0.14055816983192812
0.008800040622563834
0.010183232265422542
0.017297580739209478
0.03863364822893154
0.1560062335201226
-0.09495711891665233
-0.014066674058745525
-0.08046214605281998
0.06247322087870704
0.07955464594762528
-0.2189891595209118
-0.013585957218304771
0.07276931860648786
0.03871090975177496
0.19646020424253172
0.12696712415611602
-0.005147270195635428
-0.32451820873712595
0.024047319928915286
-0.0015949281124634507
0.013267113429793437
0.018785892219796464
-0.0016757824915620862
-0.18979295097759702
-0.08027675864829066
0.0020557095303030282
0.015105439492559393
-0.18527778836217654
-0.1276755700484324
-0.2501670843029434
-0.1886262998465546
-0.24118723981756346
-0.23743921413746238
-0.01747457153722228
0.18765122366548082
-0.030345489285528094
-0.1844746392481956
-0.0717912105557205
-0.04765558484710895
-0.10051174368879708
-0.17200256551303156
-0.08390709977157022
0.01818390336970879
-0.05658707683960615
0.015268370589992033
0.19192297064692676
0.08553157748019335
0.041715297965720516
0.1636837480818704
-0.07279235456356853
-0.0283517315772877
0.04528286364210554
0.03200656229426782
-0.055353905088475354
0.023888445068400706
-0.06108130040240277
-0.11317408941312569
0.003322565936587097
-0.13031435675537623
-0.15495744297838007
0.15254584130465026
-0.02589296091975708
-0.06990288447744696
-0.04875945902702746
0.15078629749640726
-0.02648841312642715
-0.10098985260012479
-0.06947652945760578
0.0957489803314917
-0.10121946859839513
-0.11815029479862793
0.04923552990553585
0.049553862650842384
-0.09602321803635842
-0.1801432266236796
-0.027233646134575993
-0.18121568170977068
0.016292271051836435
-0.1281897059411835
0.10462264849264305
-0.05144934084055423
-0.2203329504918528
-0.06828052908631678
-0.32732449443121103
-0.14472477107922702
0.016854173607928603
-0.015461268576032704
-0.09098012981391114
-0.03714659937708998
-0.09079186376159035
0.02544991022055852
0.04273610277536437
-0.03627222853339055
-0.08825340410876592
0.02844548619342371
0.22109176490295815
-0.11518780582689725
-0.0003043047947940889
0.09682685293934262
-0.10721999008102918
0.18714830248366054
0.11851928598575648
-0.026698033877946194
0.08249796731379466
-0.021181149694225732
-0.03066530457773077
0.01980795566154265
-0.05350157538151391
-0.030423647381966366
0.059109831537303904
-0.0908470386898298
0.13976721751912527
0.157091703276909
-0.02874553775301572
-0.10400061109229161
-0.10517891540616164
-0.11962070325792556
0.005169351923588989
0.012679494245892254
0.05112078466586107
-0.05943611558506705
-0.09138517204965523
0.23581455864278011
0.09087754531711413
0.16361155963075863
0.06741314517016656
-0.09711063198455927
0.04763992337911061
0.0766579108357249
0.035665001933075494
0.13072968237215682
-0.014385082102296175
-0.06518206014366157
0.003276406469911764
0.01704267727280107
-0.08969053818354394
0.06083249205709895
0.11086245565700978
0.0349838084980351
0.03644137265776777
-0.010404227521304762
-0.1532601066051252
0.04944889950568982
-0.04511443827472939
0.15955082987288777
0.05897175350939135
0.06903699269601192
0.12259057737461271
0.23464247923491918
0.03445971642561781
0.11245403385251115
0.013377573492737176
0.16335676695751453
0.04918973368796941
-0.011720899481476353
-0.10228271161059696
0.1069103703940315
0.06108918630354952
0.058604883704361246
-0.012098530069239872
0.0363017246209214
0.10938322811560458
0.014129108977614274
0.009543212385018533
-0.02592277283347414
-0.07100899699234636
0.03721347510707657
-0.030747166037982873
-0.01483625603877061
0.12159079722370332
-0.24511253598930582
0.049152375052580605
0.03976698676366947
-0.057853290276410646
-0.12185243776247758
0.018280821707697906
0.24740038424169067
0.09613011074380835
0.2850718266402296
0.15575112257489138
-0.027297421009974464
0.10059253020566795
-0.05618557275867321
-0.003262488653976115
-0.1301167768939332
-0.16170527463566742
0.09073526777539713
0.17175863183644594
0.22146752552575832
-0.04019141065270146
-0.07033662859904138
0.21945750004698572
-0.13983188339382432
-0.1956071556118057
0.20982523691394944
-0.12971282153675606
-0.17219813076324672
-0.09568455347105057
-0.0007758011386293067
0.16422562545929253
-0.26178014657270515
0.18635610071959227
0.1351357301008981
0.30227878869365105
-0.1048895209694738
-0.14117789341910292
-0.02845787164291393
0.2286839312307503
0.07609755855526582
-0.09675109739893234
-0.030522470635972368
-0.15010263127490367
-0.12020072410429918
-0.008446800683390083
-0.10177960852437265
-0.06860708958244327
0.04109767718333561
0.2297004278769931
-0.05010927542666732
0.1083470757757444
0.04626099510326519
0.07478317585006779
-0.006786680568217688
-0.15374454021540881
-0.3252979304305892
0.14624036036369942
-0.06296464415081042
-0.10899181571231366
-0.02775521315967996
-0.031685048330728216
0.1220954876158319
-0.1526426586870218
0.10547708959766791
-0.02233189778528718
0.04612390987851429
0.045115650196873885
-0.15244852170557505
-0.17707472015175246
0.09820189737723613
0.0740735252232048
-0.17016734043388432
0.08290352609749684
-0.05396631515087329
0.042153819753852254
0.03665359676990382
0.07889408547273725
0.045903581644560015
-0.0754892936510469
0.16735961936352645
-0.09705544223364607
-0.2851929404497868
0.05864854271454515
0.05638718727165174
-0.060138637438485264
-0.06294948974816435
-0.023730772819194477
0.281277250132147
-0.040945671153928505
0.05304265126572086
-0.0753551173853922
-0.039394431096851514
0.12714272239791502
-0.06088239864485064
0.3532796609827061
-0.03599307048655343
0.08745403477264918
0.1248781535894843
0.05663793208493071
-0.09229141772179393
-0.04891761442533623
0.08210233271342161
0.14624443123351152
0.02833675297972807
0.0796939842084083
0.08069391900181506
-0.07599389892713142
0.0005213092635389801
0.05674661839542865
0.02020986332846618
0.12095024319209423
-0.12573412383956134
0.0547664354002961
0.21114042425351986
0.27572424988988015
-0.0795349625057862
0.21346615991679316
0.2966761125719791
0.19250787962357852
-0.01802149064809792
0.03505306279609782
-0.0804022815304047
-0.06720137080360672
-0.033774637180629334
0.008088763369511002
0.04943154767228027
-0.13552952028284954
-0.10833567891583591
0.0859411977032808
0.13110860580258415
-0.01418675117957612
-0.09835192612011673
0.07611546707338326
0.13770472470427192
0.14556134947826813
-0.07523829567059706
-0.0642742717164829
-0.24180354966287804
-0.02770159517129495
-0.008967411159733003
-0.13745023278317417
0.06465052559309643
-0.3147823214997057
0.15649855848109687
-0.2968897599648489
0.09040012330568631
0.23789828610571764
0.28578039627478447
-0.06947869818546551
-0.09758664008547524
-0.3680315193350923
-0.06427113362764773
0.24852806364134875
-0.34023498090920207
0.08373564954007669
-0.4284186438856413
0.2560007969996872
-0.2900622217810376
0.14917689885908242
0.06899558592994157
0.23130589036924457
0.035529262366829656
0.0851305675250617
-0.16250814464555297
-0.12436200788143958
0.000996373210809356
-0.23189419773971803
0.17786649493596407
-0.2976890032529929
0.26229684261857533
-0.19164113113787287
0.02370187042804567
-0.18342139577440955
0.145632785295554
0.014544206069714488
-0.12027404709398284
-0.18175847465398015
-0.2495727326775864
0.023124646179340458
-0.35346631766036757
0.4076598115540083
-0.40497382174675983
0.08125135094519498
0.11110086856863366
0.11958378765470205
0.06301560889697803
0.273412622227696
-0.15848731422136494
0.2886514353452628
0.39272495792762513
-0.049418198587974214
-0.12558463929005112
0.3859244477846799
0.03277026417039446
0.30921566271675544
-0.1454715298463651
-0.017215917711541563
0.1560534430458584
0.05054672517350948
0.2878418222701446
0.14472058779033728
0.030284947625426495
-0.07378605470889273
0.05322522251516267
-0.0747759482841488
-0.01270372038024274
-0.08641750842498053
0.00924416642925587
0.2494202748703639
0.20751319319304806
-0.14053981216777237
0.060763842136440004
0.10103495224925196
0.010288882217580491
-0.02677991947618515
0.08324710602036325
-0.034967381139094776
-0.12453322895901019
-0.17080171267814218
-0.062399631764997
0.2055476826833349
-0.08876318483639893
0.0247599853605651
-0.12147141596191689
-0.004770699702724071
0.007482461062713682
-0.06963380618669512
0.06072732498111543
-0.02963858326623034
-0.03125384218721866
-0.13933038682531618
-0.09551517889435149
-0.30119077484193757
0.09583246912774308
-0.05522425981607029
-0.030694812085172992
-0.044509630226965094
-0.0822981012623048
0.17721154699416392
-0.0993839811387426
-0.007879918541018147
0.2188619390447972
-0.12787873708177852
-0.059512859137892046
-0.07614045181059978
-0.1718803704130168
0.040898405123133925
0.11746002954752627
-0.18422376399809673
-0.0640854879614625
-0.045791477365834415
-0.05180749175611871
-0.1643498069183456
0.02621896928607349
0.02477610491068383
0.07259496364591991
0.1096260859594644
-0.17039528190473222
-0.06551133828986992
0.06986557331214328
-0.03316298500404456
-0.24630600931455632
-0.0032471381016842605
-0.13529854085135667
-0.058493142619243016
-0.013006497530974367
0.01867748768463692
0.039471329605152775
0.08759768756963573
-0.01669962290799979
0.07804375934787437
-0.026197831218440694
-0.11820016885465304
-0.007430643775664953
0.05241607329691742
0.16182740256294548
-0.07343186830067763
0.13225394801196239
-0.01846297396790466
0.23252555381958426
0.042746386563051346
0.0273114650270391
0.057338103210871495
-0.051314242749040714
0.3051352570490625
0.11383116782159344
-0.15495290621278784
0.1534738812653982
-0.0021193696267815926
-0.03980669338275366
-0.010479923708931655
-0.13889125793990603
-0.07647904211114348
-0.10290529197549829
0.16451720071546574
0.0876712985519067
0.02214325693973694
0.10645770125981077
-0.01831055661419003
0.06210058166882877
0.24887437389889208
-0.01280157114902444
0.044674908998011596
0.006962034991779809
0.034346351256862875
0.08071965879039222
-0.020748024874092087
-0.03382468854313343
-0.10494233983832013
-0.02205168774955799
-0.14873249273971761
0.04138103113889792
0.20070705856588103
0.0767236023308316
-0.12835396069119345
-0.014579196183595374
-0.0379167312917959
0.04046097704720336
0.001347981130690758
-0.17095751601181705
-0.0343556278690953
0.2533449700081318
-0.1640775266246627
-0.2902689576290772
-0.14643160789031598
0.042899013433054085
0.01227325163627365
0.25950994517723075
-0.07606785006371418
-0.014629112332586406
0.012005035148291302
0.06724752608288406
0.1450475639588205
-0.17490975651514104
0.0626325560890034
-0.28365878558234936
-0.048830189537807205
-0.11327785936532764
0.1597727044148383
-0.028997343329544668
0.05493971436753382
-0.1281846396918541
0.04762370755762263
0.11675284057270259
-0.12994323991061232
0.22996501348232404
-0.1778570614400633
0.22775129352087525
-0.12329505965887558
-0.1990584211859587
-0.09215525746066101
-0.11280571147681841
0.0751992737805061
0.3026318351295144
-0.11997480955942699
-0.1102055144917658
0.3822482748298946
-0.17276502180186043
0.32013188152438304
-0.12991153882425974
0.1117912131125881
-0.19148802944804025
0.03398906036577883
-0.17990241744169724
-0.15387720939954133
0.029174713645120413
0.049649187887780645
0.24490487699072105
-0.11789716231025854
0.277067184966624
-0.2882227984077316
0.22513377981545485
-0.20514457637358532
-0.05211534506707459
0.0027245806176996756
-0.06376194676003517
-0.006915023278715719
-0.002127976517555254
-0.08723539028924665
-0.2021643065684661
0.08817801349216249
-0.00839001123549776
-0.13537155014565913
-0.04941201574475667
0.010603241328372117
-0.05533282632066624
0.04594818706665903
-0.052884166800082205
-0.03309187315947376
-0.22985230998486572
-0.01096135821715647
-0.04336232438522363
0.262976693338411
-0.01747337448990841
-0.0030019314669888966
-0.10636848395538213
0.1342053717932475
0.16669820380635927
-0.1487451216816465
-0.11571918033217364
-0.1455544198910535
0.03524241657005048
0.06593093960943003
-0.057997440689497005
0.10038155089580121
0.1369281627853927
-0.08727272174740167
-0.03125526718044251
-0.07895973131563315
-0.0662353284267369
0.1029546558349312
0.007163996679631377
0.02333954904342333
0.1917257863572189
0.1323315274723017
0.03799237582989973
0.024337711196218092
0.0683168840532145
-0.29588896957882027
0.11675487804195525
0.15463893772043502
0.046378275640252584
0.22668253232921123
-0.05742202954550743
-0.13575989339963176
0.021051598771057327
0.10210244914086626
0.030785913669637635
-0.06643545946511945
-0.024656173785308363
-0.019959559364585364
-0.19456448913791027
0.16738516304575127
-0.2812912329784927
-0.019776189822913185
0.08854344929183053
-0.045088054820581494
0.03063928029263647
0.09227614616221247
-0.1035027389218362
-0.0677415337941233
-0.01956889299434865
-0.02219427521398702
-0.028743721028400525
0.0007288338334597062
0.14772502216762898
0.020323743805754146
0.07424558052033436
-0.03499966283983732
-0.08499000175726336
-0.1583527666486487
-0.021879928066324262
-0.0687417717968697
0.045230083743646926
-0.04231397039858966
0.11492429153601062
-0.014477832285760677
-0.2935776000373686
-0.029510892745102543
-0.004010402574244442
0.0835768949020974
-0.10282414954531933
0.15037687815066553
-0.0688251771793751
-0.15303934240482267
-0.002934982998388669
-0.11131423183645278
-0.15549094964239643
-0.14068514723740083
-0.025989404032788013
-0.03684315487411302
0.08633380272795547
0.05176431912293372
0.134421161152159
-0.07205952525677141
0.16398317263980924
-0.04928833886874365
0.04759027646506647
-0.010389907636286413
-0.08688492586188536
0.054293177411028695
-0.1398679689035806
-0.21927093163033673
-0.18144712502488386
-0.12445364742873412
-0.09032646922227251
-0.10682325433302227
-0.029269065845297513
0.05692939412990419
0.0033734200462224545
0.08878677297698341
-0.028452683924412542
-0.24845515794826417
-0.15663612211797537
-0.054146493013925996
0.1756613659900679
0.06315772899475933
-0.09566716861813725
0.09414989002751101
0.03846314073997974
-0.21711401970436334
0.08352370810113664
0.05899319938675255
0.15876265139075882
0.04099968705170572
0.011524899300206568
-0.0009932716119851778
-0.06685773686231818
0.025012785433365572
-0.03500950005117875
0.2309458249155455
-0.09386378018935308
-0.05904747290156297
0.32669495541930016
-0.08336213645219592
-0.18341725265960682
-0.015038587584603458
-0.04665137942599736
-0.036558950522359523
0.07342515243778305
0.043195924745486294
0.05719860451265018
-0.09542926900301947
-0.0535056086113771
-0.03832586970169022
0.11651495939322672
0.0959558091335873
-0.06946967450264563
-0.11909707905304859
0.08936480781604415
-0.12797189985609053
0.1326674709675726
0.06517228598030095
0.006150624945561948
0.07408597323611794
0.1561697777184087
0.042194192102284256
-0.01288363335579328
-0.008164630737373783
0.14844809413205726
-0.04266294743607659
-0.03317052172430345
-0.054628034706627485
0.09237236649459657
0.10647597843734384
0.3383529663930572
0.18335880421266573
0.18123805161620077
-0.06935993448294185
-0.07021449664051424
0.20914258625446372
0.005573873718738059
-0.042889833995113674
-0.055749524673133946
-0.16971544598672417
0.1142497434356646
-0.09778400757601269
0.1421901162288298
0.10080889820591152
0.04263572342803735
0.06225605167643737
0.09942215697857602
0.032578701416415404
0.036939698589090866
-0.004649952323127351
-0.03463677158570627
0.06392948826443433
0.1245201218866616
-0.106352702198978
0.009800181704601717
0.032018752806475925
-0.05840536539549784
0.02068939084189688
0.19998290021880946
-0.0702746430605029
-0.03181238282259737
0.06965849427931707
-0.016123006913725386
0.1648726784770156
-0.02412901573126183
0.0563196222530825
-0.0007324209718251152
0.08131986762436601
-0.08030737884513389
0.03686727749133826
0.035552948363231286
-0.017612521572219122
-0.0016071625153258784
0.2079436104395467
-0.005362895371354736
0.12583185051807305
0.042122903096619445
-0.01694634824374844
0.12459958319629741
0.05351604496754791
-0.06370392831986155
-0.03413676810588902
0.17798080690500204
0.10592856569669203
0.048158908410702854
-0.017236224770178922
0.02034933373877825
0.12934629736736145
-0.06944888272797729
-0.07546243679334128
-0.004475106765250819
-0.004042883018648444
-0.050151722517731166
0.2298559165323588
0.03196884682715977
-0.1532796178115008
0.04037317802464726
-0.18330472387169378
0.00475234631788155
0.155824940474629
-0.005495175547762987
-0.0592031577634459
-0.004828730088062739
0.07860120719058437
0.021105554186373866
0.039519446126945496
0.059126520617656046
0.07741680432507851
0.08248302907932731
-0.21644266649156496
-0.029832923747454988
-0.002212375686606007
0.18688381804455934
-0.11539445784793337
-0.06866350047140105
0.07433608088295394
0.032053878106117074
0.05849596617408643
0.05644840994271157
0.05304172470498221
0.02945702461966691
0.0931690218312475
-0.05562415381484667
-0.04919374720990676
-0.03820060552957581
0.05793446934398543
-0.05410126274457975
-0.15399615612732515
-0.08803189817412918
-0.00916786721731431
-0.06116373240345271
0.13673336191298124
0.1097438937588943
0.11995299159505163
0.020249721129908044
0.01854614323299163
-0.030210974766052837
-0.16045071879449843
-0.104040560375383
-0.07252333982930027
-0.053481778793680504
0.0340913478494867
0.11127098694218694
0.1300226256906713
0.20538691293959419
0.07382690330253878
0.11262302529380636
-0.12344581315203439
0.11685516004746437
0.04966750019838143
0.03549296820963936
0.10138987103935623
0.02570721668282084
0.03845594521571087
0.1087544442980841
-0.273209341483972
-0.026790307126830136
0.0009488856441623219
0.14377041852117745
0.17287311459181123
0.10650510213917909
-0.052040199012104126
-0.07676995050552195
0.08807153979834934
0.0411517346623627
-0.04833038353815707
0.09939558548175866
0.19897624097858999
0.2096756237990776
0.04131805344410056
0.09541021293894185
-0.13864027379700275
-0.045850118043039276
0.009822318288420435
0.0012658919899622867
-0.15171171706865108
0.275697548791481
0.16408006694270102
0.019477551955898214
-0.07670353838220093
0.10611102147945178
0.03600567681347966
-0.01361603349976895
0.017159875714474675
0.05367156574388309
-0.05906773022365279
0.05265805044600392
-0.2933747142078647
-0.14010262353577702
-0.18064512289936602
0.1196938841343176
0.15389180973152586
0.303427338819281
0.18736327726596205
0.040563954415210296
0.14368963307614266
-0.10746042071479385
0.3146978627693365
-0.11598618996555562
0.20803225677681145
-0.04026705098427925
-0.13904207788885767
-0.1668500299217316
0.042867162970907716
0.07596192234946045
0.2683778501659642
-0.0230999592726516
-0.038143881292049056
0.17276739073880576
-0.14634350695051337
0.4602887625398692
-0.2066295290146703
0.3922545882953636
-0.10255567587657452
-0.039739483358423776
-0.010887262821538223
0.08727078747327612
-0.07763602100278448
0.2147924223825587
0.07002687254737966
0.11912013118625786
0.20420036027381694
-0.17276547783965127
0.3849480587195352
-0.03797518779078665
0.05070032469848937
-0.2021333926371878
0.17522417969173634
-0.0191750000656503
-0.0879278059900274
0.1343887256730203
0.07787710003122343
-0.07163388037984277
-0.06434029873473344
0.4381620701988715
-0.3015980504763177
0.3513799738253036
-0.1385971869751935
-0.03276472752353726
-0.15911894798977674
-0.042168651266878666
-0.21785074681467576
0.07695408591350304
-0.03937477512738244
-0.20229316073141662
0.061069254247538465
0.08403275953638241
-0.1917372738078547
0.03713358190386346
-0.10971592084417692
-0.046217443902125656
0.051503345748942816
-0.1673883241848388
-0.12827454457318674
-0.09106538690727854
0.04279445033086993
-0.0056503399119575155
0.3415956146534581
-0.08358045771835598
-0.04443587381469346
-0.1139971819733132
-0.024911424797551412
0.09801951348237677
-0.12164253057023262
-0.12723815655969772
0.092441120293788
0.04072140245456758
-0.22305354258356713
0.24083221952515954
0.04408670345182624
-0.05516893279754653
0.04323226533121052
0.1417330632245358
0.08281811680451415
-0.0893533691946938
-0.15445745301691613
0.2304697981124934
-0.13144487937782356
-0.008545251305318744
-0.11612059246228297
0.03200716320833296
0.14885979768087806
-0.1840426611900544
-0.07768618008882809
-0.08620826666831467
0.19098895225865106
-0.08489518075267555
0.3131223698684406
0.026615097984138535
-0.05805610169460324
0.06184189707112454
0.07682728893611268
0.15934901235892474
-0.17616829601593628
0.2344644052491819
-0.16247925471060812
-0.03495545647726312
-0.3047546404848848
0.07500215198402613
0.06558228284083423
0.18016143343955918
-0.06636474183970938
-0.08564881586886172
0.2529072669684829
-0.17321988694578627
0.5338821909464431
-0.01534483424672729
0.15952737759413685
-0.06198366596711609
-0.07129223202812232
0.04454487801485999
-0.04093617215919223
-0.03212440048482956
0.2918145369546288
0.020584580605979525
0.01240239758958953
0.4085410271851021
-0.11712210778809154
0.45144652358426807
-0.07088599450189328
0.0028801748070328074
-0.1769052794285631
-0.14684321703780542
0.0911781027281881
0.26031836723043816
0.0712527470283204
0.06073424626224146
0.09391163606711912
0.05065106576137142
0.4156070438929675
-0.30161332779296696
0.12711340223314557
-0.08778088184422456
-0.10309575252225207
0.0704479226552579
0.021199291828365975
-0.0765056709749475
0.07047474442813735
0.017592661029361863
-0.14328635225333775
0.05992116493365888
0.1581416011637726
-0.08828756263152929
-0.15475619054534864
-0.1189497148621305
0.041704473508276614
0.17525310279961118
-0.12617882867189412
-0.10112858064303737
-0.1354000164218694
-0.11384089500682606
0.20105634571474718
0.28801491714442673
-0.05979087381623678
-0.07687651218443692
-0.05677613818382286
0.11352164793389194
0.04336115524868089
-0.0997575647973639
-0.08273564432640208
0.1858997553669313
-0.11668437196599142
-0.402344259457599
-0.07375513558556772
0.011529628934728484
-0.3074358593875003
-0.06395892018416065
0.06442427598810092
0.12473467490280292
-0.16477918630421765
-0.15368672304218955
0.25577746664167916
-0.12448926736374073
0.15129231420528794
-0.06234865024140188
-0.0045783585599737725
0.0883826264026321
-0.08911931650215407
-0.10032579016591021
0.016148133527754772
-0.03269865518817783
0.08206867599364571
0.08984881767301812
0.03515616879141758
-0.12256559677672439
-0.05650985305845952
-0.05755270788836341
0.0484929905642301
-0.09396789365476164
0.23657522371621392
-0.14632542001620644
-0.14835187586941836
-0.09854331959458289
0.017338239388364454
0.09101090924444141
0.29659648213835066
-0.1680818181729774
-0.12107355779290323
0.18555916143696619
-0.028657184391620155
0.1428115203358657
-0.1104727998541299
0.09083539522796702
-0.046068299509055055
-0.11374763743750625
-0.24432275928591715
0.04426775622642673
-0.024413538499006994
0.028546872113619882
-0.08765273075998258
-0.031040398366411003
0.2690449436791136
-0.1022429113794982
0.22197929935366434
-0.18582429694196737
0.29622759938485627
-0.002751100601341498
0.07320018203633866
-0.018508006840104382
-0.006825347570751246
-0.010051013643222636
0.07330527259930021
0.04415239703053436
-0.15362865371115408
0.34756465416930826
-0.1723726824117451
0.35545624407712534
-0.0408389820036478
0.010131898861401315
-0.026987564387671987
0.0397122130038892
0.0542037221348968
-0.005269538894184487
-0.07528286139210882
-0.3325208578975928
-0.07166739396347584
0.10530459758404372
-0.09055682911279599
-0.0037667104197775
0.09921201688773364
0.005361049879039996
0.03742472677237711
-0.20395186153751238
-0.19737572924327834
-0.169710924255806
-0.0639051441567609
0.028712165074099544
0.1743090468078225
-0.038222925802119154
-0.0766875895574636
0.04617878081674892
-0.021997504862064504
-0.019655289997986748
-0.08589218626768737
0.007300655019971327
-0.03549869676810447
0.035025725885408546
-0.026529878858389724
0.03313204455975517
-0.06268044347371733
-0.10926441186803651
0.17831453792631383
0.021537762546361076
-0.05795861212384375
0.1407855333656251
0.04293164237396161
0.17593347294965112
-0.17566701486662403
-0.02687923609317425
-0.07020286236032439
-0.11884417080217449
-0.2218790672110876
0.03596123107949159
0.2217929105829733
0.015511480083093526
-0.09807191727421555
0.12147961940248904
-0.017662253529661463
-0.061655328202322966
0.060048652032015454
0.002632637469188323
-0.09512313310273075
0.000612874640546802
0.17857999868176094
0.023126273564241934
0.1742469905791553
0.17417719912481933
-0.14072202845412304
0.04772223952795258
-0.12553851847410033
-0.11240864297435119
0.0860084619522428
0.1017052108013791
0.027445966825975384
0.024698921076413666
0.14048370296655327
-0.11636573801551572
0.022516369403995443
0.13116904721109449
-0.025169151498363768
-0.060963388641556655
0.04235747392014464
0.043072623667286904
-0.0028126109923768206
-0.0017942852784033202
-0.06976603317873566
0.06156739942592425
-0.03168075481208691
-0.12729118002513154
0.07439715450447305
0.1147648146579971
-0.16814412547288227
0.03743989727469531
-0.022854615924282107
-0.05088373656377441
-0.046768212611896925
-0.06613029584850025
0.10045579916589435
-0.06921612032394128
0.036846897517973744
-0.1437448648431455
0.0874674983798694
0.08166971537043168
-0.054289037626260514
-0.036287057234333474
-0.05104767389210399
0.0650358170471107
-0.056144206119477805
-0.0008809399408913132
0.16790208014851712
0.0718268031160221
0.08465258304588821
-0.11501373360553838
0.024026417147268418
-0.02396095056502675
-0.07314873988570822
-0.056652352656069105
-0.011620773635753071
0.13009256493765622
0.09956102647239227
-0.0005814143138485451
0.054696815914286004
0.190798050532183
-0.04872615066093046
-0.09029380300842406
-0.18200321150857457
0.0411846674226465
0.228947025680813
0.21968852861463864
-0.14688870253954014
0.005111699061882781
0.020037488507603958
-0.13827079850391222
0.16928618927143907
0.11755715167631985
0.04436502455044964
0.08894843801690461
0.0603381062421129
0.20174703446236525
-0.0767422315217874
-0.23538503025230684
-0.003906305182309447
-0.11371890276129419
-0.0632704587115938
-0.07318925228177686
-0.011107031230892133
-0.03473711250626531
0.15208801206028955
0.27511884772043194
0.04253538106224688
-0.07887186472235205
0.021216999849123164
-0.10347778135180975
0.12230086490103594
0.04177867885033203
0.13593374732871844
0.03513441126474225
0.053072377657934613
0.09208167699151275
